<?xml version="1.0"?>
<opencv_storage>
<!-- Automatically converted from /Users/kyle/openCV_Utilities/haarcascade_TF_4, window size = 40x40 -->
<haarcascade_TF_4 type_id="opencv-haar-classifier">
  <size>
    40 40</size>
  <stages>
    <_>
      <!-- stage 0 -->
      <trees>
        <_>
          <!-- tree 0 -->
          <_>
            <!-- root node -->
            <feature>
              <rects>
                <_>
                  10 4 8 12 -1.</_>
                <_>
                  10 7 8 6 2.</_></rects>
              <tilted>0</tilted></feature>
            <threshold>6.2939897179603577e-02</threshold>
            <left_node>1</left_node>
            <right_val>8.3142012357711792e-01</right_val></_>
          <_>
            <!-- node 1 -->
            <feature>
              <rects>
                <_>
                  0 6 20 12 -1.</_>
                <_>
                  5 6 10 12 2.</_></rects>
              <tilted>0</tilted></feature>
            <threshold>-1.5434579551219940e-01</threshold>
            <left_val>3.4200438857078552e-01</left_val>
            <right_val>-8.8199061155319214e-01</right_val></_></_>
        <_>
          <!-- tree 1 -->
          <_>
            <!-- root node -->
            <feature>
              <rects>
                <_>
                  11 5 6 12 -1.</_>
                <_>
                  11 9 6 4 3.</_></rects>
              <tilted>0</tilted></feature>
            <threshold>1.1412289738655090e-01</threshold>
            <left_node>1</left_node>
            <right_val>8.4410852193832397e-01</right_val></_>
          <_>
            <!-- node 1 -->
            <feature>
              <rects>
                <_>
                  10 1 9 6 -1.</_>
                <_>
                  10 1 9 3 2.</_></rects>
              <tilted>1</tilted></feature>
            <threshold>9.6573293209075928e-02</threshold>
            <left_val>-7.6180022954940796e-01</left_val>
            <right_val>4.3239921331405640e-01</right_val></_></_>
        <_>
          <!-- tree 2 -->
          <_>
            <!-- root node -->
            <feature>
              <rects>
                <_>
                  5 4 10 8 -1.</_>
                <_>
                  5 4 5 4 2.</_>
                <_>
                  10 8 5 4 2.</_></rects>
              <tilted>0</tilted></feature>
            <threshold>4.7563951462507248e-02</threshold>
            <left_node>1</left_node>
            <right_val>7.7417427301406860e-01</right_val></_>
          <_>
            <!-- node 1 -->
            <feature>
              <rects>
                <_>
                  1 11 16 6 -1.</_>
                <_>
                  9 11 8 6 2.</_></rects>
              <tilted>0</tilted></feature>
            <threshold>-1.3516210019588470e-01</threshold>
            <left_val>6.9199031591415405e-01</left_val>
            <right_val>-5.3565818071365356e-01</right_val></_></_>
        <_>
          <!-- tree 3 -->
          <_>
            <!-- root node -->
            <feature>
              <rects>
                <_>
                  0 10 1 10 -1.</_>
                <_>
                  0 15 1 5 2.</_></rects>
              <tilted>0</tilted></feature>
            <threshold>-6.2185060232877731e-03</threshold>
            <left_val>-9.0524667501449585e-01</left_val>
            <right_node>1</right_node></_>
          <_>
            <!-- node 1 -->
            <feature>
              <rects>
                <_>
                  0 11 1 8 -1.</_>
                <_>
                  0 15 1 4 2.</_></rects>
              <tilted>0</tilted></feature>
            <threshold>4.1531319729983807e-03</threshold>
            <left_val>4.8308160901069641e-01</left_val>
            <right_val>-7.8078281879425049e-01</right_val></_></_>
        <_>
          <!-- tree 4 -->
          <_>
            <!-- root node -->
            <feature>
              <rects>
                <_>
                  10 9 9 4 -1.</_>
                <_>
                  10 10 9 2 2.</_></rects>
              <tilted>0</tilted></feature>
            <threshold>2.0423309877514839e-02</threshold>
            <left_node>1</left_node>
            <right_val>6.9371712207794189e-01</right_val></_>
          <_>
            <!-- node 1 -->
            <feature>
              <rects>
                <_>
                  0 5 20 15 -1.</_>
                <_>
                  0 10 20 5 3.</_></rects>
              <tilted>0</tilted></feature>
            <threshold>-1.9734899699687958e-01</threshold>
            <left_val>4.4662439823150635e-01</left_val>
            <right_val>-5.7275599241256714e-01</right_val></_></_>
        <_>
          <!-- tree 5 -->
          <_>
            <!-- root node -->
            <feature>
              <rects>
                <_>
                  1 5 4 9 -1.</_>
                <_>
                  1 8 4 3 3.</_></rects>
              <tilted>0</tilted></feature>
            <threshold>7.2386539541184902e-03</threshold>
            <left_node>1</left_node>
            <right_val>-7.2485011816024780e-01</right_val></_>
          <_>
            <!-- node 1 -->
            <feature>
              <rects>
                <_>
                  9 0 10 2 -1.</_>
                <_>
                  14 0 5 2 2.</_></rects>
              <tilted>0</tilted></feature>
            <threshold>6.2026320956647396e-03</threshold>
            <left_val>5.2890378236770630e-01</left_val>
            <right_val>-8.8988882303237915e-01</right_val></_></_>
        <_>
          <!-- tree 6 -->
          <_>
            <!-- root node -->
            <feature>
              <rects>
                <_>
                  8 0 10 2 -1.</_>
                <_>
                  13 0 5 2 2.</_></rects>
              <tilted>0</tilted></feature>
            <threshold>-1.0995780117809772e-02</threshold>
            <left_val>-9.7979491949081421e-01</left_val>
            <right_node>1</right_node></_>
          <_>
            <!-- node 1 -->
            <feature>
              <rects>
                <_>
                  6 1 12 1 -1.</_>
                <_>
                  12 1 6 1 2.</_></rects>
              <tilted>0</tilted></feature>
            <threshold>4.5630098320543766e-03</threshold>
            <left_val>4.1022890806198120e-01</left_val>
            <right_val>-7.3497229814529419e-01</right_val></_></_></trees>
      <stage_threshold>-1.3299909830093384e+00</stage_threshold>
      <parent>-1</parent>
      <next>-1</next></_>
    <_>
      <!-- stage 1 -->
      <trees>
        <_>
          <!-- tree 0 -->
          <_>
            <!-- root node -->
            <feature>
              <rects>
                <_>
                  11 10 9 6 -1.</_>
                <_>
                  11 13 9 3 2.</_></rects>
              <tilted>0</tilted></feature>
            <threshold>-1.1148569732904434e-01</threshold>
            <left_val>8.4914082288742065e-01</left_val>
            <right_node>1</right_node></_>
          <_>
            <!-- node 1 -->
            <feature>
              <rects>
                <_>
                  11 10 6 6 -1.</_>
                <_>
                  11 12 6 2 3.</_></rects>
              <tilted>0</tilted></feature>
            <threshold>-5.8574758470058441e-02</threshold>
            <left_val>5.6706631183624268e-01</left_val>
            <right_val>-6.0545831918716431e-01</right_val></_></_>
        <_>
          <!-- tree 1 -->
          <_>
            <!-- root node -->
            <feature>
              <rects>
                <_>
                  5 5 9 12 -1.</_>
                <_>
                  8 5 3 12 3.</_></rects>
              <tilted>0</tilted></feature>
            <threshold>1.1403519660234451e-01</threshold>
            <left_node>1</left_node>
            <right_val>8.1112271547317505e-01</right_val></_>
          <_>
            <!-- node 1 -->
            <feature>
              <rects>
                <_>
                  6 5 6 15 -1.</_>
                <_>
                  9 5 3 15 2.</_></rects>
              <tilted>0</tilted></feature>
            <threshold>-9.9031552672386169e-02</threshold>
            <left_val>6.7075020074844360e-01</left_val>
            <right_val>-5.0383818149566650e-01</right_val></_></_>
        <_>
          <!-- tree 2 -->
          <_>
            <!-- root node -->
            <feature>
              <rects>
                <_>
                  0 6 5 8 -1.</_>
                <_>
                  0 8 5 4 2.</_></rects>
              <tilted>0</tilted></feature>
            <threshold>-1.2379989959299564e-02</threshold>
            <left_val>-9.1852581501007080e-01</left_val>
            <right_node>1</right_node></_>
          <_>
            <!-- node 1 -->
            <feature>
              <rects>
                <_>
                  1 6 4 9 -1.</_>
                <_>
                  1 9 4 3 3.</_></rects>
              <tilted>0</tilted></feature>
            <threshold>1.6599459573626518e-02</threshold>
            <left_val>5.6467068195343018e-01</left_val>
            <right_val>-8.3001440763473511e-01</right_val></_></_>
        <_>
          <!-- tree 3 -->
          <_>
            <!-- root node -->
            <feature>
              <rects>
                <_>
                  0 0 16 2 -1.</_>
                <_>
                  4 0 8 2 2.</_></rects>
              <tilted>0</tilted></feature>
            <threshold>1.4130479656159878e-02</threshold>
            <left_node>1</left_node>
            <right_val>-9.7782742977142334e-01</right_val></_>
          <_>
            <!-- node 1 -->
            <feature>
              <rects>
                <_>
                  0 0 18 2 -1.</_>
                <_>
                  6 0 6 2 3.</_></rects>
              <tilted>0</tilted></feature>
            <threshold>-1.8023010343313217e-02</threshold>
            <left_val>-8.6473691463470459e-01</left_val>
            <right_val>4.2450159788131714e-01</right_val></_></_>
        <_>
          <!-- tree 4 -->
          <_>
            <!-- root node -->
            <feature>
              <rects>
                <_>
                  4 10 8 9 -1.</_>
                <_>
                  6 10 4 9 2.</_></rects>
              <tilted>0</tilted></feature>
            <threshold>-9.2791967093944550e-02</threshold>
            <left_val>8.8299250602722168e-01</left_val>
            <right_node>1</right_node></_>
          <_>
            <!-- node 1 -->
            <feature>
              <rects>
                <_>
                  10 10 4 4 -1.</_>
                <_>
                  10 10 2 4 2.</_></rects>
              <tilted>1</tilted></feature>
            <threshold>3.4729059785604477e-02</threshold>
            <left_val>-6.3335788249969482e-01</left_val>
            <right_val>2.7217191457748413e-01</right_val></_></_></trees>
      <stage_threshold>-1.2426370382308960e+00</stage_threshold>
      <parent>0</parent>
      <next>-1</next></_>
    <_>
      <!-- stage 2 -->
      <trees>
        <_>
          <!-- tree 0 -->
          <_>
            <!-- root node -->
            <feature>
              <rects>
                <_>
                  1 10 16 1 -1.</_>
                <_>
                  9 10 8 1 2.</_></rects>
              <tilted>0</tilted></feature>
            <threshold>3.2713890075683594e-02</threshold>
            <left_node>1</left_node>
            <right_val>7.8575158119201660e-01</right_val></_>
          <_>
            <!-- node 1 -->
            <feature>
              <rects>
                <_>
                  10 9 9 2 -1.</_>
                <_>
                  13 12 3 2 3.</_></rects>
              <tilted>1</tilted></feature>
            <threshold>-7.9682402312755585e-02</threshold>
            <left_val>5.8111149072647095e-01</left_val>
            <right_val>-6.1730927228927612e-01</right_val></_></_>
        <_>
          <!-- tree 1 -->
          <_>
            <!-- root node -->
            <feature>
              <rects>
                <_>
                  1 1 1 15 -1.</_>
                <_>
                  1 6 1 5 3.</_></rects>
              <tilted>0</tilted></feature>
            <threshold>6.5871127881109715e-03</threshold>
            <left_node>1</left_node>
            <right_val>-8.4138149023056030e-01</right_val></_>
          <_>
            <!-- node 1 -->
            <feature>
              <rects>
                <_>
                  1 1 2 15 -1.</_>
                <_>
                  1 6 2 5 3.</_></rects>
              <tilted>0</tilted></feature>
            <threshold>-1.2418899685144424e-02</threshold>
            <left_val>-7.8968900442123413e-01</left_val>
            <right_val>5.9292471408843994e-01</right_val></_></_>
        <_>
          <!-- tree 2 -->
          <_>
            <!-- root node -->
            <feature>
              <rects>
                <_>
                  8 19 10 1 -1.</_>
                <_>
                  13 19 5 1 2.</_></rects>
              <tilted>0</tilted></feature>
            <threshold>-3.7240779493004084e-03</threshold>
            <left_val>-8.6526608467102051e-01</left_val>
            <right_node>1</right_node></_>
          <_>
            <!-- node 1 -->
            <feature>
              <rects>
                <_>
                  0 0 12 2 -1.</_>
                <_>
                  3 0 6 2 2.</_></rects>
              <tilted>0</tilted></feature>
            <threshold>-7.1230218745768070e-03</threshold>
            <left_val>-8.6719888448715210e-01</left_val>
            <right_val>3.6392718553543091e-01</right_val></_></_>
        <_>
          <!-- tree 3 -->
          <_>
            <!-- root node -->
            <feature>
              <rects>
                <_>
                  11 8 6 6 -1.</_>
                <_>
                  11 10 6 2 3.</_></rects>
              <tilted>0</tilted></feature>
            <threshold>6.0085028409957886e-02</threshold>
            <left_node>1</left_node>
            <right_val>6.4931672811508179e-01</right_val></_>
          <_>
            <!-- node 1 -->
            <feature>
              <rects>
                <_>
                  12 9 7 8 -1.</_>
                <_>
                  12 11 7 4 2.</_></rects>
              <tilted>0</tilted></feature>
            <threshold>-6.8999357521533966e-02</threshold>
            <left_val>6.5436118841171265e-01</left_val>
            <right_val>-5.0428730249404907e-01</right_val></_></_>
        <_>
          <!-- tree 4 -->
          <_>
            <!-- root node -->
            <feature>
              <rects>
                <_>
                  16 7 4 7 -1.</_>
                <_>
                  18 7 2 7 2.</_></rects>
              <tilted>0</tilted></feature>
            <threshold>-1.3927330262959003e-02</threshold>
            <left_val>-9.6886241436004639e-01</left_val>
            <right_node>1</right_node></_>
          <_>
            <!-- node 1 -->
            <feature>
              <rects>
                <_>
                  1 0 3 4 -1.</_>
                <_>
                  1 2 3 2 2.</_></rects>
              <tilted>0</tilted></feature>
            <threshold>-3.5284128971397877e-03</threshold>
            <left_val>-7.7276307344436646e-01</left_val>
            <right_val>3.6000639200210571e-01</right_val></_></_>
        <_>
          <!-- tree 5 -->
          <_>
            <!-- root node -->
            <feature>
              <rects>
                <_>
                  1 5 3 14 -1.</_>
                <_>
                  1 12 3 7 2.</_></rects>
              <tilted>0</tilted></feature>
            <threshold>-2.5917800143361092e-02</threshold>
            <left_val>-8.8920110464096069e-01</left_val>
            <right_node>1</right_node></_>
          <_>
            <!-- node 1 -->
            <feature>
              <rects>
                <_>
                  0 6 2 14 -1.</_>
                <_>
                  0 13 2 7 2.</_></rects>
              <tilted>0</tilted></feature>
            <threshold>1.8854189664125443e-02</threshold>
            <left_val>3.4664011001586914e-01</left_val>
            <right_val>-8.8562488555908203e-01</right_val></_></_>
        <_>
          <!-- tree 6 -->
          <_>
            <!-- root node -->
            <feature>
              <rects>
                <_>
                  10 11 10 3 -1.</_>
                <_>
                  10 12 10 1 3.</_></rects>
              <tilted>0</tilted></feature>
            <threshold>9.6899662166833878e-03</threshold>
            <left_node>1</left_node>
            <right_val>4.9223521351814270e-01</right_val></_>
          <_>
            <!-- node 1 -->
            <feature>
              <rects>
                <_>
                  14 12 6 4 -1.</_>
                <_>
                  14 13 6 2 2.</_></rects>
              <tilted>0</tilted></feature>
            <threshold>7.4815051630139351e-03</threshold>
            <left_val>-6.1258471012115479e-01</left_val>
            <right_val>3.1083568930625916e-01</right_val></_></_>
        <_>
          <!-- tree 7 -->
          <_>
            <!-- root node -->
            <feature>
              <rects>
                <_>
                  0 0 4 20 -1.</_>
                <_>
                  0 5 4 10 2.</_></rects>
              <tilted>0</tilted></feature>
            <threshold>3.6635499447584152e-02</threshold>
            <left_node>1</left_node>
            <right_val>-8.8217377662658691e-01</right_val></_>
          <_>
            <!-- node 1 -->
            <feature>
              <rects>
                <_>
                  14 10 2 1 -1.</_>
                <_>
                  15 10 1 1 2.</_></rects>
              <tilted>0</tilted></feature>
            <threshold>7.1975181344896555e-04</threshold>
            <left_val>3.6692139506340027e-01</left_val>
            <right_val>-8.2674962282180786e-01</right_val></_></_></trees>
      <stage_threshold>-1.2823430299758911e+00</stage_threshold>
      <parent>1</parent>
      <next>-1</next></_>
    <_>
      <!-- stage 3 -->
      <trees>
        <_>
          <!-- tree 0 -->
          <_>
            <!-- root node -->
            <feature>
              <rects>
                <_>
                  6 5 4 10 -1.</_>
                <_>
                  8 5 2 10 2.</_></rects>
              <tilted>0</tilted></feature>
            <threshold>5.9215061366558075e-02</threshold>
            <left_node>1</left_node>
            <right_val>7.9164421558380127e-01</right_val></_>
          <_>
            <!-- node 1 -->
            <feature>
              <rects>
                <_>
                  1 4 3 16 -1.</_>
                <_>
                  1 8 3 8 2.</_></rects>
              <tilted>0</tilted></feature>
            <threshold>-6.4770430326461792e-03</threshold>
            <left_val>-8.3582842350006104e-01</left_val>
            <right_val>-5.7156130671501160e-02</right_val></_></_>
        <_>
          <!-- tree 1 -->
          <_>
            <!-- root node -->
            <feature>
              <rects>
                <_>
                  13 10 6 2 -1.</_>
                <_>
                  15 10 2 2 3.</_></rects>
              <tilted>0</tilted></feature>
            <threshold>-1.3082720106467605e-03</threshold>
            <left_val>-7.9387772083282471e-01</left_val>
            <right_node>1</right_node></_>
          <_>
            <!-- node 1 -->
            <feature>
              <rects>
                <_>
                  13 10 6 2 -1.</_>
                <_>
                  15 10 2 2 3.</_></rects>
              <tilted>0</tilted></feature>
            <threshold>4.2355740442872047e-03</threshold>
            <left_val>5.5146539211273193e-01</left_val>
            <right_val>-7.7240562438964844e-01</right_val></_></_>
        <_>
          <!-- tree 2 -->
          <_>
            <!-- root node -->
            <feature>
              <rects>
                <_>
                  13 5 3 4 -1.</_>
                <_>
                  13 5 3 2 2.</_></rects>
              <tilted>1</tilted></feature>
            <threshold>-5.0239849835634232e-02</threshold>
            <left_val>7.3802989721298218e-01</left_val>
            <right_node>1</right_node></_>
          <_>
            <!-- node 1 -->
            <feature>
              <rects>
                <_>
                  6 6 14 4 -1.</_>
                <_>
                  13 6 7 4 2.</_></rects>
              <tilted>0</tilted></feature>
            <threshold>2.1017160266637802e-02</threshold>
            <left_val>-5.9099668264389038e-01</left_val>
            <right_val>1.5836769342422485e-01</right_val></_></_>
        <_>
          <!-- tree 3 -->
          <_>
            <!-- root node -->
            <feature>
              <rects>
                <_>
                  1 10 4 8 -1.</_>
                <_>
                  1 12 4 4 2.</_></rects>
              <tilted>0</tilted></feature>
            <threshold>6.8812821991741657e-03</threshold>
            <left_node>1</left_node>
            <right_val>-8.5238182544708252e-01</right_val></_>
          <_>
            <!-- node 1 -->
            <feature>
              <rects>
                <_>
                  0 10 8 8 -1.</_>
                <_>
                  0 12 8 4 2.</_></rects>
              <tilted>0</tilted></feature>
            <threshold>-1.5887770801782608e-02</threshold>
            <left_val>-6.7394489049911499e-01</left_val>
            <right_val>4.1352009773254395e-01</right_val></_></_>
        <_>
          <!-- tree 4 -->
          <_>
            <!-- root node -->
            <feature>
              <rects>
                <_>
                  0 19 12 1 -1.</_>
                <_>
                  6 19 6 1 2.</_></rects>
              <tilted>0</tilted></feature>
            <threshold>5.2138757891952991e-03</threshold>
            <left_node>1</left_node>
            <right_val>-8.8468629121780396e-01</right_val></_>
          <_>
            <!-- node 1 -->
            <feature>
              <rects>
                <_>
                  1 11 7 6 -1.</_>
                <_>
                  1 13 7 2 3.</_></rects>
              <tilted>0</tilted></feature>
            <threshold>1.3876450248062611e-02</threshold>
            <left_val>2.4429680407047272e-01</left_val>
            <right_val>-8.9745181798934937e-01</right_val></_></_>
        <_>
          <!-- tree 5 -->
          <_>
            <!-- root node -->
            <feature>
              <rects>
                <_>
                  3 10 10 4 -1.</_>
                <_>
                  3 10 5 2 2.</_>
                <_>
                  8 12 5 2 2.</_></rects>
              <tilted>0</tilted></feature>
            <threshold>-1.2267650105059147e-02</threshold>
            <left_node>1</left_node>
            <right_val>-4.3895679712295532e-01</right_val></_>
          <_>
            <!-- node 1 -->
            <feature>
              <rects>
                <_>
                  1 1 9 2 -1.</_>
                <_>
                  4 1 3 2 3.</_></rects>
              <tilted>0</tilted></feature>
            <threshold>-7.5381100177764893e-03</threshold>
            <left_val>-5.6789851188659668e-01</left_val>
            <right_val>5.4036939144134521e-01</right_val></_></_>
        <_>
          <!-- tree 6 -->
          <_>
            <!-- root node -->
            <feature>
              <rects>
                <_>
                  15 6 5 12 -1.</_>
                <_>
                  15 10 5 4 3.</_></rects>
              <tilted>0</tilted></feature>
            <threshold>1.3713109493255615e-01</threshold>
            <left_node>1</left_node>
            <right_val>6.8082827329635620e-01</right_val></_>
          <_>
            <!-- node 1 -->
            <feature>
              <rects>
                <_>
                  12 11 7 8 -1.</_>
                <_>
                  12 15 7 4 2.</_></rects>
              <tilted>0</tilted></feature>
            <threshold>1.0272420011460781e-02</threshold>
            <left_val>-5.4652237892150879e-01</left_val>
            <right_val>2.2789520025253296e-01</right_val></_></_>
        <_>
          <!-- tree 7 -->
          <_>
            <!-- root node -->
            <feature>
              <rects>
                <_>
                  0 12 10 8 -1.</_>
                <_>
                  0 14 10 4 2.</_></rects>
              <tilted>0</tilted></feature>
            <threshold>2.7095120400190353e-02</threshold>
            <left_node>1</left_node>
            <right_val>-9.6021878719329834e-01</right_val></_>
          <_>
            <!-- node 1 -->
            <feature>
              <rects>
                <_>
                  2 11 2 4 -1.</_>
                <_>
                  2 13 2 2 2.</_></rects>
              <tilted>0</tilted></feature>
            <threshold>-5.3383819758892059e-03</threshold>
            <left_val>-8.5389161109924316e-01</left_val>
            <right_val>2.7646088600158691e-01</right_val></_></_>
        <_>
          <!-- tree 8 -->
          <_>
            <!-- root node -->
            <feature>
              <rects>
                <_>
                  5 10 4 10 -1.</_>
                <_>
                  6 10 2 10 2.</_></rects>
              <tilted>0</tilted></feature>
            <threshold>1.3361039571464062e-02</threshold>
            <left_node>1</left_node>
            <right_val>5.7367002964019775e-01</right_val></_>
          <_>
            <!-- node 1 -->
            <feature>
              <rects>
                <_>
                  4 8 6 9 -1.</_>
                <_>
                  6 8 2 9 3.</_></rects>
              <tilted>0</tilted></feature>
            <threshold>-7.1438007056713104e-02</threshold>
            <left_val>6.6710627079010010e-01</left_val>
            <right_val>-4.1767409443855286e-01</right_val></_></_>
        <_>
          <!-- tree 9 -->
          <_>
            <!-- root node -->
            <feature>
              <rects>
                <_>
                  0 0 12 2 -1.</_>
                <_>
                  3 0 6 2 2.</_></rects>
              <tilted>0</tilted></feature>
            <threshold>9.1990176588296890e-03</threshold>
            <left_node>1</left_node>
            <right_val>-8.1839901208877563e-01</right_val></_>
          <_>
            <!-- node 1 -->
            <feature>
              <rects>
                <_>
                  1 0 14 4 -1.</_>
                <_>
                  8 0 7 4 2.</_></rects>
              <tilted>0</tilted></feature>
            <threshold>3.5114709287881851e-02</threshold>
            <left_val>3.0045211315155029e-01</left_val>
            <right_val>-9.2755621671676636e-01</right_val></_></_></trees>
      <stage_threshold>-1.4705679416656494e+00</stage_threshold>
      <parent>2</parent>
      <next>-1</next></_>
    <_>
      <!-- stage 4 -->
      <trees>
        <_>
          <!-- tree 0 -->
          <_>
            <!-- root node -->
            <feature>
              <rects>
                <_>
                  3 6 16 6 -1.</_>
                <_>
                  3 6 8 3 2.</_>
                <_>
                  11 9 8 3 2.</_></rects>
              <tilted>0</tilted></feature>
            <threshold>6.9288752973079681e-02</threshold>
            <left_node>1</left_node>
            <right_val>6.6759318113327026e-01</right_val></_>
          <_>
            <!-- node 1 -->
            <feature>
              <rects>
                <_>
                  1 5 12 13 -1.</_>
                <_>
                  5 5 4 13 3.</_></rects>
              <tilted>0</tilted></feature>
            <threshold>-3.3734801411628723e-01</threshold>
            <left_val>7.4313437938690186e-01</left_val>
            <right_val>-5.1680117845535278e-01</right_val></_></_>
        <_>
          <!-- tree 1 -->
          <_>
            <!-- root node -->
            <feature>
              <rects>
                <_>
                  15 9 2 9 -1.</_>
                <_>
                  15 9 1 9 2.</_></rects>
              <tilted>1</tilted></feature>
            <threshold>2.0139109343290329e-02</threshold>
            <left_val>-3.8236561417579651e-01</left_val>
            <right_node>1</right_node></_>
          <_>
            <!-- node 1 -->
            <feature>
              <rects>
                <_>
                  3 8 4 9 -1.</_>
                <_>
                  3 11 4 3 3.</_></rects>
              <tilted>0</tilted></feature>
            <threshold>-1.1487330310046673e-02</threshold>
            <left_val>-7.9600811004638672e-01</left_val>
            <right_val>7.0060378313064575e-01</right_val></_></_>
        <_>
          <!-- tree 2 -->
          <_>
            <!-- root node -->
            <feature>
              <rects>
                <_>
                  2 10 7 6 -1.</_>
                <_>
                  2 12 7 2 3.</_></rects>
              <tilted>0</tilted></feature>
            <threshold>1.1079129762947559e-02</threshold>
            <left_node>1</left_node>
            <right_val>-7.2963541746139526e-01</right_val></_>
          <_>
            <!-- node 1 -->
            <feature>
              <rects>
                <_>
                  15 10 3 2 -1.</_>
                <_>
                  16 10 1 2 3.</_></rects>
              <tilted>0</tilted></feature>
            <threshold>-1.1636279523372650e-03</threshold>
            <left_val>-7.7004051208496094e-01</left_val>
            <right_val>4.1355371475219727e-01</right_val></_></_>
        <_>
          <!-- tree 3 -->
          <_>
            <!-- root node -->
            <feature>
              <rects>
                <_>
                  7 13 6 6 -1.</_>
                <_>
                  7 13 3 3 2.</_>
                <_>
                  10 16 3 3 2.</_></rects>
              <tilted>0</tilted></feature>
            <threshold>2.4366289377212524e-02</threshold>
            <left_node>1</left_node>
            <right_val>5.7414692640304565e-01</right_val></_>
          <_>
            <!-- node 1 -->
            <feature>
              <rects>
                <_>
                  7 14 4 6 -1.</_>
                <_>
                  7 14 2 3 2.</_>
                <_>
                  9 17 2 3 2.</_></rects>
              <tilted>0</tilted></feature>
            <threshold>-1.0898130014538765e-02</threshold>
            <left_val>4.5633891224861145e-01</left_val>
            <right_val>-4.8488458991050720e-01</right_val></_></_>
        <_>
          <!-- tree 4 -->
          <_>
            <!-- root node -->
            <feature>
              <rects>
                <_>
                  7 0 1 6 -1.</_>
                <_>
                  5 2 1 2 3.</_></rects>
              <tilted>1</tilted></feature>
            <threshold>6.2781828455626965e-03</threshold>
            <left_node>1</left_node>
            <right_val>-7.6285237073898315e-01</right_val></_>
          <_>
            <!-- node 1 -->
            <feature>
              <rects>
                <_>
                  10 18 9 2 -1.</_>
                <_>
                  13 18 3 2 3.</_></rects>
              <tilted>0</tilted></feature>
            <threshold>-7.8144762665033340e-03</threshold>
            <left_val>-8.4269571304321289e-01</left_val>
            <right_val>2.7919119596481323e-01</right_val></_></_>
        <_>
          <!-- tree 5 -->
          <_>
            <!-- root node -->
            <feature>
              <rects>
                <_>
                  19 0 1 8 -1.</_>
                <_>
                  19 4 1 4 2.</_></rects>
              <tilted>0</tilted></feature>
            <threshold>-1.1933849891647696e-03</threshold>
            <left_val>-5.3190058469772339e-01</left_val>
            <right_node>1</right_node></_>
          <_>
            <!-- node 1 -->
            <feature>
              <rects>
                <_>
                  16 7 4 13 -1.</_>
                <_>
                  18 7 2 13 2.</_></rects>
              <tilted>0</tilted></feature>
            <threshold>7.9441312700510025e-03</threshold>
            <left_val>3.1881529092788696e-01</left_val>
            <right_val>-6.0046768188476562e-01</right_val></_></_>
        <_>
          <!-- tree 6 -->
          <_>
            <!-- root node -->
            <feature>
              <rects>
                <_>
                  3 6 12 3 -1.</_>
                <_>
                  7 6 4 3 3.</_></rects>
              <tilted>0</tilted></feature>
            <threshold>4.9600381404161453e-02</threshold>
            <left_node>1</left_node>
            <right_val>5.7578378915786743e-01</right_val></_>
          <_>
            <!-- node 1 -->
            <feature>
              <rects>
                <_>
                  1 6 9 6 -1.</_>
                <_>
                  4 6 3 6 3.</_></rects>
              <tilted>0</tilted></feature>
            <threshold>2.6650210842490196e-02</threshold>
            <left_val>-4.8179408907890320e-01</left_val>
            <right_val>3.9878320693969727e-01</right_val></_></_>
        <_>
          <!-- tree 7 -->
          <_>
            <!-- root node -->
            <feature>
              <rects>
                <_>
                  0 0 6 4 -1.</_>
                <_>
                  2 0 2 4 3.</_></rects>
              <tilted>0</tilted></feature>
            <threshold>-1.0707310400903225e-02</threshold>
            <left_val>-9.3843227624893188e-01</left_val>
            <right_node>1</right_node></_>
          <_>
            <!-- node 1 -->
            <feature>
              <rects>
                <_>
                  10 10 2 4 -1.</_>
                <_>
                  10 12 2 2 2.</_></rects>
              <tilted>0</tilted></feature>
            <threshold>-5.4257037118077278e-04</threshold>
            <left_val>2.8951969742774963e-01</left_val>
            <right_val>-5.0871211290359497e-01</right_val></_></_>
        <_>
          <!-- tree 8 -->
          <_>
            <!-- root node -->
            <feature>
              <rects>
                <_>
                  10 11 8 4 -1.</_>
                <_>
                  10 12 8 2 2.</_></rects>
              <tilted>0</tilted></feature>
            <threshold>1.2544830329716206e-02</threshold>
            <left_node>1</left_node>
            <right_val>5.2870041131973267e-01</right_val></_>
          <_>
            <!-- node 1 -->
            <feature>
              <rects>
                <_>
                  17 17 3 2 -1.</_>
                <_>
                  17 18 3 1 2.</_></rects>
              <tilted>0</tilted></feature>
            <threshold>-5.7801771617960185e-05</threshold>
            <left_val>6.6535092890262604e-02</left_val>
            <right_val>-6.6266041994094849e-01</right_val></_></_>
        <_>
          <!-- tree 9 -->
          <_>
            <!-- root node -->
            <feature>
              <rects>
                <_>
                  1 5 6 8 -1.</_>
                <_>
                  1 7 6 4 2.</_></rects>
              <tilted>0</tilted></feature>
            <threshold>1.3604779727756977e-02</threshold>
            <left_node>1</left_node>
            <right_val>-8.3870720863342285e-01</right_val></_>
          <_>
            <!-- node 1 -->
            <feature>
              <rects>
                <_>
                  1 9 4 8 -1.</_>
                <_>
                  1 11 4 4 2.</_></rects>
              <tilted>0</tilted></feature>
            <threshold>1.2272059917449951e-02</threshold>
            <left_val>2.3541070520877838e-01</left_val>
            <right_val>-9.7252219915390015e-01</right_val></_></_>
        <_>
          <!-- tree 10 -->
          <_>
            <!-- root node -->
            <feature>
              <rects>
                <_>
                  0 18 20 2 -1.</_>
                <_>
                  10 18 10 2 2.</_></rects>
              <tilted>0</tilted></feature>
            <threshold>-2.1764000877737999e-02</threshold>
            <left_val>-6.3531750440597534e-01</left_val>
            <right_node>1</right_node></_>
          <_>
            <!-- node 1 -->
            <feature>
              <rects>
                <_>
                  12 10 8 3 -1.</_>
                <_>
                  14 10 4 3 2.</_></rects>
              <tilted>0</tilted></feature>
            <threshold>1.3919609598815441e-02</threshold>
            <left_val>2.2751000523567200e-01</left_val>
            <right_val>-8.5997098684310913e-01</right_val></_></_>
        <_>
          <!-- tree 11 -->
          <_>
            <!-- root node -->
            <feature>
              <rects>
                <_>
                  6 0 6 1 -1.</_>
                <_>
                  9 0 3 1 2.</_></rects>
              <tilted>0</tilted></feature>
            <threshold>1.6069889534264803e-03</threshold>
            <left_node>1</left_node>
            <right_val>-6.9473338127136230e-01</right_val></_>
          <_>
            <!-- node 1 -->
            <feature>
              <rects>
                <_>
                  1 1 6 4 -1.</_>
                <_>
                  4 1 3 4 2.</_></rects>
              <tilted>0</tilted></feature>
            <threshold>5.3944149985909462e-03</threshold>
            <left_val>2.7039039134979248e-01</left_val>
            <right_val>-6.2619227170944214e-01</right_val></_></_></trees>
      <stage_threshold>-1.3969750404357910e+00</stage_threshold>
      <parent>3</parent>
      <next>-1</next></_>
    <_>
      <!-- stage 5 -->
      <trees>
        <_>
          <!-- tree 0 -->
          <_>
            <!-- root node -->
            <feature>
              <rects>
                <_>
                  8 10 6 4 -1.</_>
                <_>
                  8 10 3 2 2.</_>
                <_>
                  11 12 3 2 2.</_></rects>
              <tilted>0</tilted></feature>
            <threshold>-6.6231191158294678e-03</threshold>
            <left_node>1</left_node>
            <right_val>-5.4363542795181274e-01</right_val></_>
          <_>
            <!-- node 1 -->
            <feature>
              <rects>
                <_>
                  7 8 3 6 -1.</_>
                <_>
                  7 10 3 2 3.</_></rects>
              <tilted>0</tilted></feature>
            <threshold>-6.5816780552268028e-03</threshold>
            <left_val>-7.4706470966339111e-01</left_val>
            <right_val>6.3004940748214722e-01</right_val></_></_>
        <_>
          <!-- tree 1 -->
          <_>
            <!-- root node -->
            <feature>
              <rects>
                <_>
                  8 4 3 4 -1.</_>
                <_>
                  9 4 1 4 3.</_></rects>
              <tilted>0</tilted></feature>
            <threshold>9.4036683440208435e-03</threshold>
            <left_node>1</left_node>
            <right_val>7.2215378284454346e-01</right_val></_>
          <_>
            <!-- node 1 -->
            <feature>
              <rects>
                <_>
                  0 1 1 14 -1.</_>
                <_>
                  0 8 1 7 2.</_></rects>
              <tilted>0</tilted></feature>
            <threshold>-4.2201387695968151e-03</threshold>
            <left_val>-8.0003768205642700e-01</left_val>
            <right_val>-5.3158041089773178e-02</right_val></_></_>
        <_>
          <!-- tree 2 -->
          <_>
            <!-- root node -->
            <feature>
              <rects>
                <_>
                  12 10 6 2 -1.</_>
                <_>
                  14 10 2 2 3.</_></rects>
              <tilted>0</tilted></feature>
            <threshold>-9.3994007329456508e-05</threshold>
            <left_val>-4.9563491344451904e-01</left_val>
            <right_node>1</right_node></_>
          <_>
            <!-- node 1 -->
            <feature>
              <rects>
                <_>
                  12 10 6 3 -1.</_>
                <_>
                  14 10 2 3 3.</_></rects>
              <tilted>0</tilted></feature>
            <threshold>1.0992409661412239e-02</threshold>
            <left_val>3.5724851489067078e-01</left_val>
            <right_val>-8.3429557085037231e-01</right_val></_></_>
        <_>
          <!-- tree 3 -->
          <_>
            <!-- root node -->
            <feature>
              <rects>
                <_>
                  6 0 12 1 -1.</_>
                <_>
                  9 0 6 1 2.</_></rects>
              <tilted>0</tilted></feature>
            <threshold>-5.4326797835528851e-03</threshold>
            <left_val>-8.9629477262496948e-01</left_val>
            <right_node>1</right_node></_>
          <_>
            <!-- node 1 -->
            <feature>
              <rects>
                <_>
                  4 1 8 1 -1.</_>
                <_>
                  8 1 4 1 2.</_></rects>
              <tilted>0</tilted></feature>
            <threshold>2.3967770393937826e-03</threshold>
            <left_val>2.3698779940605164e-01</left_val>
            <right_val>-6.5752941370010376e-01</right_val></_></_>
        <_>
          <!-- tree 4 -->
          <_>
            <!-- root node -->
            <feature>
              <rects>
                <_>
                  6 6 8 2 -1.</_>
                <_>
                  8 6 4 2 2.</_></rects>
              <tilted>0</tilted></feature>
            <threshold>8.7429638952016830e-03</threshold>
            <left_node>1</left_node>
            <right_val>4.2006349563598633e-01</right_val></_>
          <_>
            <!-- node 1 -->
            <feature>
              <rects>
                <_>
                  4 6 6 6 -1.</_>
                <_>
                  6 6 2 6 3.</_></rects>
              <tilted>0</tilted></feature>
            <threshold>1.3541519641876221e-02</threshold>
            <left_val>-5.8354038000106812e-01</left_val>
            <right_val>2.2298489511013031e-01</right_val></_></_>
        <_>
          <!-- tree 5 -->
          <_>
            <!-- root node -->
            <feature>
              <rects>
                <_>
                  12 12 8 3 -1.</_>
                <_>
                  12 13 8 1 3.</_></rects>
              <tilted>0</tilted></feature>
            <threshold>8.4555074572563171e-03</threshold>
            <left_node>1</left_node>
            <right_val>4.7527500987052917e-01</right_val></_>
          <_>
            <!-- node 1 -->
            <feature>
              <rects>
                <_>
                  3 14 12 5 -1.</_>
                <_>
                  6 14 6 5 2.</_></rects>
              <tilted>0</tilted></feature>
            <threshold>-4.7902319580316544e-02</threshold>
            <left_val>2.4297380447387695e-01</left_val>
            <right_val>-4.6287190914154053e-01</right_val></_></_>
        <_>
          <!-- tree 6 -->
          <_>
            <!-- root node -->
            <feature>
              <rects>
                <_>
                  2 16 2 2 -1.</_>
                <_>
                  2 16 2 1 2.</_></rects>
              <tilted>1</tilted></feature>
            <threshold>2.8833500109612942e-03</threshold>
            <left_node>1</left_node>
            <right_val>-8.2870578765869141e-01</right_val></_>
          <_>
            <!-- node 1 -->
            <feature>
              <rects>
                <_>
                  1 11 14 4 -1.</_>
                <_>
                  1 11 7 2 2.</_>
                <_>
                  8 13 7 2 2.</_></rects>
              <tilted>0</tilted></feature>
            <threshold>-7.8469980508089066e-03</threshold>
            <left_val>3.8736939430236816e-01</left_val>
            <right_val>-3.3240139484405518e-01</right_val></_></_>
        <_>
          <!-- tree 7 -->
          <_>
            <!-- root node -->
            <feature>
              <rects>
                <_>
                  2 19 18 1 -1.</_>
                <_>
                  11 19 9 1 2.</_></rects>
              <tilted>0</tilted></feature>
            <threshold>-8.1301461905241013e-03</threshold>
            <left_val>-6.4401477575302124e-01</left_val>
            <right_node>1</right_node></_>
          <_>
            <!-- node 1 -->
            <feature>
              <rects>
                <_>
                  7 8 4 4 -1.</_>
                <_>
                  7 9 4 2 2.</_></rects>
              <tilted>0</tilted></feature>
            <threshold>-5.4618122521787882e-04</threshold>
            <left_val>-4.6826729178428650e-01</left_val>
            <right_val>2.8346019983291626e-01</right_val></_></_>
        <_>
          <!-- tree 8 -->
          <_>
            <!-- root node -->
            <feature>
              <rects>
                <_>
                  3 10 7 6 -1.</_>
                <_>
                  3 12 7 2 3.</_></rects>
              <tilted>0</tilted></feature>
            <threshold>-1.3333730399608612e-02</threshold>
            <left_val>-6.7648488283157349e-01</left_val>
            <right_node>1</right_node></_>
          <_>
            <!-- node 1 -->
            <feature>
              <rects>
                <_>
                  14 0 6 1 -1.</_>
                <_>
                  17 0 3 1 2.</_></rects>
              <tilted>0</tilted></feature>
            <threshold>2.5109469424933195e-03</threshold>
            <left_val>2.1826809644699097e-01</left_val>
            <right_val>-9.2434698343276978e-01</right_val></_></_>
        <_>
          <!-- tree 9 -->
          <_>
            <!-- root node -->
            <feature>
              <rects>
                <_>
                  14 8 6 4 -1.</_>
                <_>
                  14 10 6 2 2.</_></rects>
              <tilted>0</tilted></feature>
            <threshold>-1.5341159887611866e-02</threshold>
            <left_val>5.1112031936645508e-01</left_val>
            <right_node>1</right_node></_>
          <_>
            <!-- node 1 -->
            <feature>
              <rects>
                <_>
                  11 10 8 4 -1.</_>
                <_>
                  11 11 8 2 2.</_></rects>
              <tilted>0</tilted></feature>
            <threshold>1.2258090078830719e-02</threshold>
            <left_val>-5.2646517753601074e-01</left_val>
            <right_val>1.6601130366325378e-01</right_val></_></_>
        <_>
          <!-- tree 10 -->
          <_>
            <!-- root node -->
            <feature>
              <rects>
                <_>
                  5 15 4 4 -1.</_>
                <_>
                  5 15 2 2 2.</_>
                <_>
                  7 17 2 2 2.</_></rects>
              <tilted>0</tilted></feature>
            <threshold>-4.8557571135461330e-03</threshold>
            <left_val>4.6549031138420105e-01</left_val>
            <right_node>1</right_node></_>
          <_>
            <!-- node 1 -->
            <feature>
              <rects>
                <_>
                  8 14 2 6 -1.</_>
                <_>
                  8 14 1 3 2.</_>
                <_>
                  9 17 1 3 2.</_></rects>
              <tilted>0</tilted></feature>
            <threshold>-5.5132168345153332e-03</threshold>
            <left_val>5.6209629774093628e-01</left_val>
            <right_val>-3.6176699399948120e-01</right_val></_></_>
        <_>
          <!-- tree 11 -->
          <_>
            <!-- root node -->
            <feature>
              <rects>
                <_>
                  2 5 10 6 -1.</_>
                <_>
                  7 5 5 6 2.</_></rects>
              <tilted>0</tilted></feature>
            <threshold>-1.6622170805931091e-02</threshold>
            <left_node>1</left_node>
            <right_val>-2.6071509718894958e-01</right_val></_>
          <_>
            <!-- node 1 -->
            <feature>
              <rects>
                <_>
                  0 10 4 8 -1.</_>
                <_>
                  2 10 2 8 2.</_></rects>
              <tilted>0</tilted></feature>
            <threshold>-9.5112732378765941e-04</threshold>
            <left_val>-5.3637641668319702e-01</left_val>
            <right_val>7.1195769309997559e-01</right_val></_></_>
        <_>
          <!-- tree 12 -->
          <_>
            <!-- root node -->
            <feature>
              <rects>
                <_>
                  0 0 9 2 -1.</_>
                <_>
                  3 0 3 2 3.</_></rects>
              <tilted>0</tilted></feature>
            <threshold>6.7462241277098656e-03</threshold>
            <left_node>1</left_node>
            <right_val>-6.7941707372665405e-01</right_val></_>
          <_>
            <!-- node 1 -->
            <feature>
              <rects>
                <_>
                  14 0 1 18 -1.</_>
                <_>
                  14 9 1 9 2.</_></rects>
              <tilted>0</tilted></feature>
            <threshold>-3.0924160033464432e-02</threshold>
            <left_val>-6.7542040348052979e-01</left_val>
            <right_val>2.7883040904998779e-01</right_val></_></_>
        <_>
          <!-- tree 13 -->
          <_>
            <!-- root node -->
            <feature>
              <rects>
                <_>
                  2 11 6 6 -1.</_>
                <_>
                  2 13 6 2 3.</_></rects>
              <tilted>0</tilted></feature>
            <threshold>-1.8162729218602180e-02</threshold>
            <left_val>-8.4651958942413330e-01</left_val>
            <right_node>1</right_node></_>
          <_>
            <!-- node 1 -->
            <feature>
              <rects>
                <_>
                  5 11 3 6 -1.</_>
                <_>
                  5 13 3 2 3.</_></rects>
              <tilted>0</tilted></feature>
            <threshold>1.0007349774241447e-02</threshold>
            <left_val>1.6158589720726013e-01</left_val>
            <right_val>-8.2494682073593140e-01</right_val></_></_>
        <_>
          <!-- tree 14 -->
          <_>
            <!-- root node -->
            <feature>
              <rects>
                <_>
                  10 11 1 2 -1.</_>
                <_>
                  10 12 1 1 2.</_></rects>
              <tilted>0</tilted></feature>
            <threshold>-7.4157353083137423e-05</threshold>
            <left_node>1</left_node>
            <right_val>-4.5153409242630005e-01</right_val></_>
          <_>
            <!-- node 1 -->
            <feature>
              <rects>
                <_>
                  0 7 3 6 -1.</_>
                <_>
                  0 9 3 2 3.</_></rects>
              <tilted>0</tilted></feature>
            <threshold>1.1948759667575359e-02</threshold>
            <left_val>2.3126989603042603e-01</left_val>
            <right_val>-8.6241382360458374e-01</right_val></_></_></trees>
      <stage_threshold>-1.6360290050506592e+00</stage_threshold>
      <parent>4</parent>
      <next>-1</next></_>
    <_>
      <!-- stage 6 -->
      <trees>
        <_>
          <!-- tree 0 -->
          <_>
            <!-- root node -->
            <feature>
              <rects>
                <_>
                  5 0 6 12 -1.</_>
                <_>
                  5 0 3 6 2.</_>
                <_>
                  8 6 3 6 2.</_></rects>
              <tilted>0</tilted></feature>
            <threshold>5.8604959398508072e-02</threshold>
            <left_node>1</left_node>
            <right_val>6.6121208667755127e-01</right_val></_>
          <_>
            <!-- node 1 -->
            <feature>
              <rects>
                <_>
                  11 14 3 3 -1.</_>
                <_>
                  12 15 1 3 3.</_></rects>
              <tilted>1</tilted></feature>
            <threshold>-1.7894810065627098e-02</threshold>
            <left_val>4.1393551230430603e-01</left_val>
            <right_val>-4.7721961140632629e-01</right_val></_></_>
        <_>
          <!-- tree 1 -->
          <_>
            <!-- root node -->
            <feature>
              <rects>
                <_>
                  15 9 4 4 -1.</_>
                <_>
                  15 10 4 2 2.</_></rects>
              <tilted>0</tilted></feature>
            <threshold>7.1601020172238350e-03</threshold>
            <left_val>-3.6103829741477966e-01</left_val>
            <right_node>1</right_node></_>
          <_>
            <!-- node 1 -->
            <feature>
              <rects>
                <_>
                  9 11 1 3 -1.</_>
                <_>
                  9 12 1 1 3.</_></rects>
              <tilted>0</tilted></feature>
            <threshold>-6.3867878634482622e-04</threshold>
            <left_val>-4.2234769463539124e-01</left_val>
            <right_val>6.2802612781524658e-01</right_val></_></_>
        <_>
          <!-- tree 2 -->
          <_>
            <!-- root node -->
            <feature>
              <rects>
                <_>
                  15 10 3 2 -1.</_>
                <_>
                  16 10 1 2 3.</_></rects>
              <tilted>0</tilted></feature>
            <threshold>7.7266822336241603e-04</threshold>
            <left_node>1</left_node>
            <right_val>-6.8634462356567383e-01</right_val></_>
          <_>
            <!-- node 1 -->
            <feature>
              <rects>
                <_>
                  11 0 6 1 -1.</_>
                <_>
                  11 0 3 1 2.</_></rects>
              <tilted>1</tilted></feature>
            <threshold>-5.3043118678033352e-03</threshold>
            <left_val>-6.3111138343811035e-01</left_val>
            <right_val>3.0807399749755859e-01</right_val></_></_>
        <_>
          <!-- tree 3 -->
          <_>
            <!-- root node -->
            <feature>
              <rects>
                <_>
                  10 4 6 1 -1.</_>
                <_>
                  12 6 2 1 3.</_></rects>
              <tilted>1</tilted></feature>
            <threshold>-2.7725769206881523e-02</threshold>
            <left_val>7.1299368143081665e-01</left_val>
            <right_node>1</right_node></_>
          <_>
            <!-- node 1 -->
            <feature>
              <rects>
                <_>
                  0 11 20 9 -1.</_>
                <_>
                  5 11 10 9 2.</_></rects>
              <tilted>0</tilted></feature>
            <threshold>-7.8844696283340454e-02</threshold>
            <left_val>1.9136640429496765e-01</left_val>
            <right_val>-4.8555690050125122e-01</right_val></_></_>
        <_>
          <!-- tree 4 -->
          <_>
            <!-- root node -->
            <feature>
              <rects>
                <_>
                  6 5 3 11 -1.</_>
                <_>
                  7 5 1 11 3.</_></rects>
              <tilted>0</tilted></feature>
            <threshold>1.9731560721993446e-02</threshold>
            <left_node>1</left_node>
            <right_val>6.7538237571716309e-01</right_val></_>
          <_>
            <!-- node 1 -->
            <feature>
              <rects>
                <_>
                  4 3 8 16 -1.</_>
                <_>
                  6 3 4 16 2.</_></rects>
              <tilted>0</tilted></feature>
            <threshold>-1.3556690514087677e-01</threshold>
            <left_val>5.5556577444076538e-01</left_val>
            <right_val>-2.7168381214141846e-01</right_val></_></_>
        <_>
          <!-- tree 5 -->
          <_>
            <!-- root node -->
            <feature>
              <rects>
                <_>
                  13 10 5 4 -1.</_>
                <_>
                  12 11 5 2 2.</_></rects>
              <tilted>1</tilted></feature>
            <threshold>-1.3535629957914352e-02</threshold>
            <left_node>1</left_node>
            <right_val>-2.3845459520816803e-01</right_val></_>
          <_>
            <!-- node 1 -->
            <feature>
              <rects>
                <_>
                  0 4 4 10 -1.</_>
                <_>
                  2 4 2 10 2.</_></rects>
              <tilted>0</tilted></feature>
            <threshold>1.2260760180652142e-02</threshold>
            <left_val>4.3048709630966187e-01</left_val>
            <right_val>-8.3915382623672485e-01</right_val></_></_>
        <_>
          <!-- tree 6 -->
          <_>
            <!-- root node -->
            <feature>
              <rects>
                <_>
                  2 0 1 4 -1.</_>
                <_>
                  2 2 1 2 2.</_></rects>
              <tilted>0</tilted></feature>
            <threshold>-4.1284589678980410e-04</threshold>
            <left_val>-4.8440909385681152e-01</left_val>
            <right_node>1</right_node></_>
          <_>
            <!-- node 1 -->
            <feature>
              <rects>
                <_>
                  2 10 4 3 -1.</_>
                <_>
                  4 10 2 3 2.</_></rects>
              <tilted>0</tilted></feature>
            <threshold>5.0710630603134632e-04</threshold>
            <left_val>-1.3117009401321411e-01</left_val>
            <right_val>4.6386709809303284e-01</right_val></_></_>
        <_>
          <!-- tree 7 -->
          <_>
            <!-- root node -->
            <feature>
              <rects>
                <_>
                  7 4 3 7 -1.</_>
                <_>
                  8 4 1 7 3.</_></rects>
              <tilted>0</tilted></feature>
            <threshold>7.2964439168572426e-03</threshold>
            <left_node>1</left_node>
            <right_val>4.3327319622039795e-01</right_val></_>
          <_>
            <!-- node 1 -->
            <feature>
              <rects>
                <_>
                  8 0 4 8 -1.</_>
                <_>
                  8 0 2 4 2.</_>
                <_>
                  10 4 2 4 2.</_></rects>
              <tilted>0</tilted></feature>
            <threshold>9.6360296010971069e-03</threshold>
            <left_val>-3.8413169980049133e-01</left_val>
            <right_val>3.3288419246673584e-01</right_val></_></_>
        <_>
          <!-- tree 8 -->
          <_>
            <!-- root node -->
            <feature>
              <rects>
                <_>
                  1 17 1 2 -1.</_>
                <_>
                  1 18 1 1 2.</_></rects>
              <tilted>0</tilted></feature>
            <threshold>2.9439490754157305e-04</threshold>
            <left_node>1</left_node>
            <right_val>-4.3644440174102783e-01</right_val></_>
          <_>
            <!-- node 1 -->
            <feature>
              <rects>
                <_>
                  0 3 2 14 -1.</_>
                <_>
                  0 3 1 7 2.</_>
                <_>
                  1 10 1 7 2.</_></rects>
              <tilted>0</tilted></feature>
            <threshold>-7.0625421358272433e-04</threshold>
            <left_val>-3.0653348565101624e-01</left_val>
            <right_val>3.6522158980369568e-01</right_val></_></_>
        <_>
          <!-- tree 9 -->
          <_>
            <!-- root node -->
            <feature>
              <rects>
                <_>
                  16 10 4 2 -1.</_>
                <_>
                  17 10 2 2 2.</_></rects>
              <tilted>0</tilted></feature>
            <threshold>1.3114709872752428e-03</threshold>
            <left_node>1</left_node>
            <right_val>-6.8699991703033447e-01</right_val></_>
          <_>
            <!-- node 1 -->
            <feature>
              <rects>
                <_>
                  14 3 3 5 -1.</_>
                <_>
                  15 4 1 5 3.</_></rects>
              <tilted>1</tilted></feature>
            <threshold>-7.5330650433897972e-03</threshold>
            <left_val>4.9297130107879639e-01</left_val>
            <right_val>-9.1324307024478912e-02</right_val></_></_>
        <_>
          <!-- tree 10 -->
          <_>
            <!-- root node -->
            <feature>
              <rects>
                <_>
                  12 1 3 8 -1.</_>
                <_>
                  12 5 3 4 2.</_></rects>
              <tilted>0</tilted></feature>
            <threshold>2.4261230137199163e-03</threshold>
            <left_val>-3.1608688831329346e-01</left_val>
            <right_node>1</right_node></_>
          <_>
            <!-- node 1 -->
            <feature>
              <rects>
                <_>
                  6 1 12 18 -1.</_>
                <_>
                  6 10 12 9 2.</_></rects>
              <tilted>0</tilted></feature>
            <threshold>7.2058357298374176e-02</threshold>
            <left_val>4.0767851471900940e-01</left_val>
            <right_val>-5.9760051965713501e-01</right_val></_></_>
        <_>
          <!-- tree 11 -->
          <_>
            <!-- root node -->
            <feature>
              <rects>
                <_>
                  11 10 7 4 -1.</_>
                <_>
                  11 11 7 2 2.</_></rects>
              <tilted>0</tilted></feature>
            <threshold>1.6515059396624565e-02</threshold>
            <left_node>1</left_node>
            <right_val>4.0356209874153137e-01</right_val></_>
          <_>
            <!-- node 1 -->
            <feature>
              <rects>
                <_>
                  3 8 16 4 -1.</_>
                <_>
                  3 8 8 2 2.</_>
                <_>
                  11 10 8 2 2.</_></rects>
              <tilted>0</tilted></feature>
            <threshold>-1.4488929882645607e-02</threshold>
            <left_val>2.1367080509662628e-01</left_val>
            <right_val>-4.7005641460418701e-01</right_val></_></_>
        <_>
          <!-- tree 12 -->
          <_>
            <!-- root node -->
            <feature>
              <rects>
                <_>
                  8 0 12 1 -1.</_>
                <_>
                  11 0 6 1 2.</_></rects>
              <tilted>0</tilted></feature>
            <threshold>-1.0753410169854760e-03</threshold>
            <left_val>-5.1073968410491943e-01</left_val>
            <right_node>1</right_node></_>
          <_>
            <!-- node 1 -->
            <feature>
              <rects>
                <_>
                  15 7 4 13 -1.</_>
                <_>
                  17 7 2 13 2.</_></rects>
              <tilted>0</tilted></feature>
            <threshold>-5.3548850119113922e-03</threshold>
            <left_val>-4.8674491047859192e-01</left_val>
            <right_val>3.0138149857521057e-01</right_val></_></_>
        <_>
          <!-- tree 13 -->
          <_>
            <!-- root node -->
            <feature>
              <rects>
                <_>
                  3 5 12 4 -1.</_>
                <_>
                  6 5 6 4 2.</_></rects>
              <tilted>0</tilted></feature>
            <threshold>1.4746130444109440e-02</threshold>
            <left_node>1</left_node>
            <right_val>3.5413399338722229e-01</right_val></_>
          <_>
            <!-- node 1 -->
            <feature>
              <rects>
                <_>
                  8 15 12 5 -1.</_>
                <_>
                  12 15 4 5 3.</_></rects>
              <tilted>0</tilted></feature>
            <threshold>8.2229953259229660e-03</threshold>
            <left_val>-6.1446458101272583e-01</left_val>
            <right_val>2.3105239868164062e-01</right_val></_></_>
        <_>
          <!-- tree 14 -->
          <_>
            <!-- root node -->
            <feature>
              <rects>
                <_>
                  3 0 6 2 -1.</_>
                <_>
                  3 1 6 1 2.</_></rects>
              <tilted>0</tilted></feature>
            <threshold>1.0877540335059166e-03</threshold>
            <left_node>1</left_node>
            <right_val>-4.7014638781547546e-01</right_val></_>
          <_>
            <!-- node 1 -->
            <feature>
              <rects>
                <_>
                  3 1 12 1 -1.</_>
                <_>
                  9 1 6 1 2.</_></rects>
              <tilted>0</tilted></feature>
            <threshold>2.8742200229316950e-03</threshold>
            <left_val>3.0977520346641541e-01</left_val>
            <right_val>-4.7829630970954895e-01</right_val></_></_>
        <_>
          <!-- tree 15 -->
          <_>
            <!-- root node -->
            <feature>
              <rects>
                <_>
                  0 5 10 6 -1.</_>
                <_>
                  0 7 10 2 3.</_></rects>
              <tilted>0</tilted></feature>
            <threshold>2.4176390841603279e-02</threshold>
            <left_node>1</left_node>
            <right_val>-8.8154530525207520e-01</right_val></_>
          <_>
            <!-- node 1 -->
            <feature>
              <rects>
                <_>
                  1 5 9 8 -1.</_>
                <_>
                  1 7 9 4 2.</_></rects>
              <tilted>0</tilted></feature>
            <threshold>-3.6195829510688782e-02</threshold>
            <left_val>-9.3806540966033936e-01</left_val>
            <right_val>1.4732189476490021e-01</right_val></_></_>
        <_>
          <!-- tree 16 -->
          <_>
            <!-- root node -->
            <feature>
              <rects>
                <_>
                  1 2 12 17 -1.</_>
                <_>
                  5 2 4 17 3.</_></rects>
              <tilted>0</tilted></feature>
            <threshold>2.0922109484672546e-01</threshold>
            <left_node>1</left_node>
            <right_val>5.6777667999267578e-01</right_val></_>
          <_>
            <!-- node 1 -->
            <feature>
              <rects>
                <_>
                  4 15 8 4 -1.</_>
                <_>
                  4 15 4 2 2.</_>
                <_>
                  8 17 4 2 2.</_></rects>
              <tilted>0</tilted></feature>
            <threshold>-6.9001070223748684e-03</threshold>
            <left_val>2.8522819280624390e-01</left_val>
            <right_val>-4.0407669544219971e-01</right_val></_></_>
        <_>
          <!-- tree 17 -->
          <_>
            <!-- root node -->
            <feature>
              <rects>
                <_>
                  1 19 16 1 -1.</_>
                <_>
                  5 19 8 1 2.</_></rects>
              <tilted>0</tilted></feature>
            <threshold>5.5963951162993908e-03</threshold>
            <left_node>1</left_node>
            <right_val>-8.0487042665481567e-01</right_val></_>
          <_>
            <!-- node 1 -->
            <feature>
              <rects>
                <_>
                  1 16 15 4 -1.</_>
                <_>
                  1 18 15 2 2.</_></rects>
              <tilted>0</tilted></feature>
            <threshold>1.1992930434644222e-02</threshold>
            <left_val>-1.3055309653282166e-01</left_val>
            <right_val>4.4340369105339050e-01</right_val></_></_>
        <_>
          <!-- tree 18 -->
          <_>
            <!-- root node -->
            <feature>
              <rects>
                <_>
                  12 17 1 2 -1.</_>
                <_>
                  12 17 1 1 2.</_></rects>
              <tilted>1</tilted></feature>
            <threshold>2.4465750902891159e-04</threshold>
            <left_val>-3.0202230811119080e-01</left_val>
            <right_node>1</right_node></_>
          <_>
            <!-- node 1 -->
            <feature>
              <rects>
                <_>
                  12 16 2 1 -1.</_>
                <_>
                  12 16 1 1 2.</_></rects>
              <tilted>1</tilted></feature>
            <threshold>-6.8087491672486067e-04</threshold>
            <left_val>-2.2974419593811035e-01</left_val>
            <right_val>4.8987400531768799e-01</right_val></_></_></trees>
      <stage_threshold>-1.4992059469223022e+00</stage_threshold>
      <parent>5</parent>
      <next>-1</next></_>
    <_>
      <!-- stage 7 -->
      <trees>
        <_>
          <!-- tree 0 -->
          <_>
            <!-- root node -->
            <feature>
              <rects>
                <_>
                  12 3 5 4 -1.</_>
                <_>
                  12 3 5 2 2.</_></rects>
              <tilted>1</tilted></feature>
            <threshold>-7.3189958930015564e-02</threshold>
            <left_val>6.8532902002334595e-01</left_val>
            <right_node>1</right_node></_>
          <_>
            <!-- node 1 -->
            <feature>
              <rects>
                <_>
                  4 1 6 18 -1.</_>
                <_>
                  6 7 2 6 9.</_></rects>
              <tilted>0</tilted></feature>
            <threshold>-3.7605398893356323e-01</threshold>
            <left_val>6.0966300964355469e-01</left_val>
            <right_val>-3.8695469498634338e-01</right_val></_></_>
        <_>
          <!-- tree 1 -->
          <_>
            <!-- root node -->
            <feature>
              <rects>
                <_>
                  12 10 8 2 -1.</_>
                <_>
                  14 10 4 2 2.</_></rects>
              <tilted>0</tilted></feature>
            <threshold>-2.7169799432158470e-04</threshold>
            <left_val>-5.6610101461410522e-01</left_val>
            <right_node>1</right_node></_>
          <_>
            <!-- node 1 -->
            <feature>
              <rects>
                <_>
                  11 9 3 4 -1.</_>
                <_>
                  11 10 3 2 2.</_></rects>
              <tilted>0</tilted></feature>
            <threshold>3.8814321160316467e-03</threshold>
            <left_val>-3.1252759695053101e-01</left_val>
            <right_val>4.9636530876159668e-01</right_val></_></_>
        <_>
          <!-- tree 2 -->
          <_>
            <!-- root node -->
            <feature>
              <rects>
                <_>
                  5 6 4 9 -1.</_>
                <_>
                  5 9 4 3 3.</_></rects>
              <tilted>0</tilted></feature>
            <threshold>2.8219489380717278e-02</threshold>
            <left_node>1</left_node>
            <right_val>-7.5380957126617432e-01</right_val></_>
          <_>
            <!-- node 1 -->
            <feature>
              <rects>
                <_>
                  0 0 12 3 -1.</_>
                <_>
                  4 1 4 1 9.</_></rects>
              <tilted>0</tilted></feature>
            <threshold>-1.2892750091850758e-02</threshold>
            <left_val>-6.1676847934722900e-01</left_val>
            <right_val>2.2784060239791870e-01</right_val></_></_>
        <_>
          <!-- tree 3 -->
          <_>
            <!-- root node -->
            <feature>
              <rects>
                <_>
                  2 8 17 3 -1.</_>
                <_>
                  2 9 17 1 3.</_></rects>
              <tilted>0</tilted></feature>
            <threshold>9.0343803167343140e-03</threshold>
            <left_node>1</left_node>
            <right_val>3.3858230710029602e-01</right_val></_>
          <_>
            <!-- node 1 -->
            <feature>
              <rects>
                <_>
                  15 11 5 4 -1.</_>
                <_>
                  15 12 5 2 2.</_></rects>
              <tilted>0</tilted></feature>
            <threshold>1.1467239819467068e-02</threshold>
            <left_val>-4.4585430622100830e-01</left_val>
            <right_val>3.2088398933410645e-01</right_val></_></_>
        <_>
          <!-- tree 4 -->
          <_>
            <!-- root node -->
            <feature>
              <rects>
                <_>
                  2 0 10 10 -1.</_>
                <_>
                  2 0 5 5 2.</_>
                <_>
                  7 5 5 5 2.</_></rects>
              <tilted>0</tilted></feature>
            <threshold>-2.0514160394668579e-02</threshold>
            <left_val>4.2776980996131897e-01</left_val>
            <right_node>1</right_node></_>
          <_>
            <!-- node 1 -->
            <feature>
              <rects>
                <_>
                  3 14 8 4 -1.</_>
                <_>
                  3 14 4 2 2.</_>
                <_>
                  7 16 4 2 2.</_></rects>
              <tilted>0</tilted></feature>
            <threshold>-5.0397929735481739e-03</threshold>
            <left_val>7.3000378906726837e-02</left_val>
            <right_val>-5.3572118282318115e-01</right_val></_></_>
        <_>
          <!-- tree 5 -->
          <_>
            <!-- root node -->
            <feature>
              <rects>
                <_>
                  15 0 4 4 -1.</_>
                <_>
                  15 2 4 2 2.</_></rects>
              <tilted>0</tilted></feature>
            <threshold>5.4578701965510845e-03</threshold>
            <left_node>1</left_node>
            <right_val>-6.8921470642089844e-01</right_val></_>
          <_>
            <!-- node 1 -->
            <feature>
              <rects>
                <_>
                  8 12 1 3 -1.</_>
                <_>
                  8 13 1 1 3.</_></rects>
              <tilted>0</tilted></feature>
            <threshold>5.7038629893213511e-04</threshold>
            <left_val>2.5428220629692078e-01</left_val>
            <right_val>-5.0102442502975464e-01</right_val></_></_>
        <_>
          <!-- tree 6 -->
          <_>
            <!-- root node -->
            <feature>
              <rects>
                <_>
                  13 7 7 12 -1.</_>
                <_>
                  13 11 7 4 3.</_></rects>
              <tilted>0</tilted></feature>
            <threshold>-1.2468799948692322e-01</threshold>
            <left_val>4.0921160578727722e-01</left_val>
            <right_node>1</right_node></_>
          <_>
            <!-- node 1 -->
            <feature>
              <rects>
                <_>
                  13 11 4 4 -1.</_>
                <_>
                  12 12 4 2 2.</_></rects>
              <tilted>1</tilted></feature>
            <threshold>-1.9980039447546005e-02</threshold>
            <left_val>2.2500979900360107e-01</left_val>
            <right_val>-4.1437390446662903e-01</right_val></_></_>
        <_>
          <!-- tree 7 -->
          <_>
            <!-- root node -->
            <feature>
              <rects>
                <_>
                  1 0 6 3 -1.</_>
                <_>
                  4 0 3 3 2.</_></rects>
              <tilted>0</tilted></feature>
            <threshold>1.7676219576969743e-03</threshold>
            <left_node>1</left_node>
            <right_val>-4.4627580046653748e-01</right_val></_>
          <_>
            <!-- node 1 -->
            <feature>
              <rects>
                <_>
                  0 1 4 6 -1.</_>
                <_>
                  2 1 2 6 2.</_></rects>
              <tilted>0</tilted></feature>
            <threshold>3.7157461047172546e-03</threshold>
            <left_val>3.0330118536949158e-01</left_val>
            <right_val>-5.6341040134429932e-01</right_val></_></_>
        <_>
          <!-- tree 8 -->
          <_>
            <!-- root node -->
            <feature>
              <rects>
                <_>
                  10 7 2 5 -1.</_>
                <_>
                  10 7 1 5 2.</_></rects>
              <tilted>1</tilted></feature>
            <threshold>-4.8316349275410175e-03</threshold>
            <left_val>2.9345428943634033e-01</left_val>
            <right_node>1</right_node></_>
          <_>
            <!-- node 1 -->
            <feature>
              <rects>
                <_>
                  0 10 6 8 -1.</_>
                <_>
                  3 10 3 8 2.</_></rects>
              <tilted>0</tilted></feature>
            <threshold>5.2031371742486954e-03</threshold>
            <left_val>-6.3873881101608276e-01</left_val>
            <right_val>1.8781480193138123e-01</right_val></_></_>
        <_>
          <!-- tree 9 -->
          <_>
            <!-- root node -->
            <feature>
              <rects>
                <_>
                  10 3 3 5 -1.</_>
                <_>
                  11 3 1 5 3.</_></rects>
              <tilted>0</tilted></feature>
            <threshold>1.1105979792773724e-02</threshold>
            <left_node>1</left_node>
            <right_val>7.4676877260208130e-01</right_val></_>
          <_>
            <!-- node 1 -->
            <feature>
              <rects>
                <_>
                  12 1 6 2 -1.</_>
                <_>
                  12 2 6 1 2.</_></rects>
              <tilted>0</tilted></feature>
            <threshold>-3.9829951128922403e-04</threshold>
            <left_val>-4.7883939743041992e-01</left_val>
            <right_val>7.8340657055377960e-02</right_val></_></_>
        <_>
          <!-- tree 10 -->
          <_>
            <!-- root node -->
            <feature>
              <rects>
                <_>
                  1 8 8 9 -1.</_>
                <_>
                  1 11 8 3 3.</_></rects>
              <tilted>0</tilted></feature>
            <threshold>-4.1463449597358704e-02</threshold>
            <left_val>-9.6227037906646729e-01</left_val>
            <right_node>1</right_node></_>
          <_>
            <!-- node 1 -->
            <feature>
              <rects>
                <_>
                  11 18 5 2 -1.</_>
                <_>
                  11 19 5 1 2.</_></rects>
              <tilted>0</tilted></feature>
            <threshold>-1.7816890613175929e-04</threshold>
            <left_val>3.5674670338630676e-01</left_val>
            <right_val>-2.0342870056629181e-01</right_val></_></_>
        <_>
          <!-- tree 11 -->
          <_>
            <!-- root node -->
            <feature>
              <rects>
                <_>
                  5 0 5 10 -1.</_>
                <_>
                  5 5 5 5 2.</_></rects>
              <tilted>0</tilted></feature>
            <threshold>2.4590360000729561e-02</threshold>
            <left_node>1</left_node>
            <right_val>3.5517838597297668e-01</right_val></_>
          <_>
            <!-- node 1 -->
            <feature>
              <rects>
                <_>
                  18 4 1 2 -1.</_>
                <_>
                  18 5 1 1 2.</_></rects>
              <tilted>0</tilted></feature>
            <threshold>-1.8963740149047226e-04</threshold>
            <left_val>-7.0043122768402100e-01</left_val>
            <right_val>-7.3174491990357637e-04</right_val></_></_>
        <_>
          <!-- tree 12 -->
          <_>
            <!-- root node -->
            <feature>
              <rects>
                <_>
                  0 18 10 2 -1.</_>
                <_>
                  5 18 5 2 2.</_></rects>
              <tilted>0</tilted></feature>
            <threshold>6.8735331296920776e-03</threshold>
            <left_node>1</left_node>
            <right_val>-8.1137168407440186e-01</right_val></_>
          <_>
            <!-- node 1 -->
            <feature>
              <rects>
                <_>
                  15 5 5 8 -1.</_>
                <_>
                  15 5 5 4 2.</_></rects>
              <tilted>1</tilted></feature>
            <threshold>2.2610339522361755e-01</threshold>
            <left_val>1.3616530597209930e-01</left_val>
            <right_val>-9.9243539571762085e-01</right_val></_></_>
        <_>
          <!-- tree 13 -->
          <_>
            <!-- root node -->
            <feature>
              <rects>
                <_>
                  1 4 2 1 -1.</_>
                <_>
                  1 4 1 1 2.</_></rects>
              <tilted>1</tilted></feature>
            <threshold>2.3092169431038201e-04</threshold>
            <left_node>1</left_node>
            <right_val>-3.8085651397705078e-01</right_val></_>
          <_>
            <!-- node 1 -->
            <feature>
              <rects>
                <_>
                  7 1 10 2 -1.</_>
                <_>
                  12 1 5 2 2.</_></rects>
              <tilted>0</tilted></feature>
            <threshold>6.1919158324599266e-03</threshold>
            <left_val>2.7317228913307190e-01</left_val>
            <right_val>-5.2434068918228149e-01</right_val></_></_>
        <_>
          <!-- tree 14 -->
          <_>
            <!-- root node -->
            <feature>
              <rects>
                <_>
                  9 3 3 5 -1.</_>
                <_>
                  10 3 1 5 3.</_></rects>
              <tilted>0</tilted></feature>
            <threshold>9.0264063328504562e-03</threshold>
            <left_node>1</left_node>
            <right_val>4.8227348923683167e-01</right_val></_>
          <_>
            <!-- node 1 -->
            <feature>
              <rects>
                <_>
                  6 18 7 2 -1.</_>
                <_>
                  6 19 7 1 2.</_></rects>
              <tilted>0</tilted></feature>
            <threshold>3.5419201012700796e-03</threshold>
            <left_val>-3.0769750475883484e-01</left_val>
            <right_val>3.0395388603210449e-01</right_val></_></_>
        <_>
          <!-- tree 15 -->
          <_>
            <!-- root node -->
            <feature>
              <rects>
                <_>
                  0 0 6 3 -1.</_>
                <_>
                  2 1 2 1 9.</_></rects>
              <tilted>0</tilted></feature>
            <threshold>2.0953800994902849e-03</threshold>
            <left_node>1</left_node>
            <right_val>-3.6332970857620239e-01</right_val></_>
          <_>
            <!-- node 1 -->
            <feature>
              <rects>
                <_>
                  11 2 4 11 -1.</_>
                <_>
                  11 2 2 11 2.</_></rects>
              <tilted>1</tilted></feature>
            <threshold>-6.0112629085779190e-02</threshold>
            <left_val>-6.5863502025604248e-01</left_val>
            <right_val>2.7111899852752686e-01</right_val></_></_>
        <_>
          <!-- tree 16 -->
          <_>
            <!-- root node -->
            <feature>
              <rects>
                <_>
                  5 6 4 5 -1.</_>
                <_>
                  6 7 2 5 2.</_></rects>
              <tilted>1</tilted></feature>
            <threshold>-1.9572239834815264e-03</threshold>
            <left_val>3.0781608819961548e-01</left_val>
            <right_node>1</right_node></_>
          <_>
            <!-- node 1 -->
            <feature>
              <rects>
                <_>
                  12 1 8 6 -1.</_>
                <_>
                  10 3 8 2 3.</_></rects>
              <tilted>1</tilted></feature>
            <threshold>1.2744949758052826e-01</threshold>
            <left_val>-3.6143359541893005e-01</left_val>
            <right_val>5.4364430904388428e-01</right_val></_></_>
        <_>
          <!-- tree 17 -->
          <_>
            <!-- root node -->
            <feature>
              <rects>
                <_>
                  0 1 6 3 -1.</_>
                <_>
                  3 1 3 3 2.</_></rects>
              <tilted>0</tilted></feature>
            <threshold>-1.2378900311887264e-02</threshold>
            <left_val>-9.6852129697799683e-01</left_val>
            <right_node>1</right_node></_>
          <_>
            <!-- node 1 -->
            <feature>
              <rects>
                <_>
                  1 4 2 16 -1.</_>
                <_>
                  1 8 2 8 2.</_></rects>
              <tilted>0</tilted></feature>
            <threshold>-2.7087749913334846e-03</threshold>
            <left_val>-3.1493389606475830e-01</left_val>
            <right_val>2.2633920609951019e-01</right_val></_></_>
        <_>
          <!-- tree 18 -->
          <_>
            <!-- root node -->
            <feature>
              <rects>
                <_>
                  9 4 4 5 -1.</_>
                <_>
                  10 4 2 5 2.</_></rects>
              <tilted>0</tilted></feature>
            <threshold>-1.0186440311372280e-02</threshold>
            <left_val>4.4024908542633057e-01</left_val>
            <right_node>1</right_node></_>
          <_>
            <!-- node 1 -->
            <feature>
              <rects>
                <_>
                  6 16 4 4 -1.</_>
                <_>
                  6 16 2 2 2.</_>
                <_>
                  8 18 2 2 2.</_></rects>
              <tilted>0</tilted></feature>
            <threshold>-9.9391117691993713e-03</threshold>
            <left_val>4.1719120740890503e-01</left_val>
            <right_val>-2.6195329427719116e-01</right_val></_></_>
        <_>
          <!-- tree 19 -->
          <_>
            <!-- root node -->
            <feature>
              <rects>
                <_>
                  0 1 15 2 -1.</_>
                <_>
                  5 1 5 2 3.</_></rects>
              <tilted>0</tilted></feature>
            <threshold>2.6472749188542366e-02</threshold>
            <left_node>1</left_node>
            <right_val>-9.2332530021667480e-01</right_val></_>
          <_>
            <!-- node 1 -->
            <feature>
              <rects>
                <_>
                  0 10 14 6 -1.</_>
                <_>
                  0 10 7 3 2.</_>
                <_>
                  7 13 7 3 2.</_></rects>
              <tilted>0</tilted></feature>
            <threshold>-1.0034970007836819e-02</threshold>
            <left_val>2.3606170713901520e-01</left_val>
            <right_val>-3.8195711374282837e-01</right_val></_></_>
        <_>
          <!-- tree 20 -->
          <_>
            <!-- root node -->
            <feature>
              <rects>
                <_>
                  11 11 9 4 -1.</_>
                <_>
                  11 13 9 2 2.</_></rects>
              <tilted>0</tilted></feature>
            <threshold>1.6092130914330482e-02</threshold>
            <left_node>1</left_node>
            <right_val>6.7255628108978271e-01</right_val></_>
          <_>
            <!-- node 1 -->
            <feature>
              <rects>
                <_>
                  11 10 7 4 -1.</_>
                <_>
                  11 11 7 2 2.</_></rects>
              <tilted>0</tilted></feature>
            <threshold>6.4196200110018253e-03</threshold>
            <left_val>-4.3224889039993286e-01</left_val>
            <right_val>1.0791429877281189e-01</right_val></_></_></trees>
      <stage_threshold>-1.3152819871902466e+00</stage_threshold>
      <parent>6</parent>
      <next>-1</next></_>
    <_>
      <!-- stage 8 -->
      <trees>
        <_>
          <!-- tree 0 -->
          <_>
            <!-- root node -->
            <feature>
              <rects>
                <_>
                  9 0 4 8 -1.</_>
                <_>
                  9 0 2 4 2.</_>
                <_>
                  11 4 2 4 2.</_></rects>
              <tilted>0</tilted></feature>
            <threshold>-2.5964170694351196e-02</threshold>
            <left_val>5.8615458011627197e-01</left_val>
            <right_node>1</right_node></_>
          <_>
            <!-- node 1 -->
            <feature>
              <rects>
                <_>
                  3 17 9 1 -1.</_>
                <_>
                  6 17 3 1 3.</_></rects>
              <tilted>0</tilted></feature>
            <threshold>-1.6246840357780457e-02</threshold>
            <left_val>4.2041710019111633e-01</left_val>
            <right_val>-4.0166878700256348e-01</right_val></_></_>
        <_>
          <!-- tree 1 -->
          <_>
            <!-- root node -->
            <feature>
              <rects>
                <_>
                  10 10 9 1 -1.</_>
                <_>
                  13 10 3 1 3.</_></rects>
              <tilted>0</tilted></feature>
            <threshold>2.8737029060721397e-04</threshold>
            <left_val>-4.5985609292984009e-01</left_val>
            <right_node>1</right_node></_>
          <_>
            <!-- node 1 -->
            <feature>
              <rects>
                <_>
                  10 9 9 3 -1.</_>
                <_>
                  13 9 3 3 3.</_></rects>
              <tilted>0</tilted></feature>
            <threshold>2.3998329415917397e-02</threshold>
            <left_val>4.3077290058135986e-01</left_val>
            <right_val>-7.0711672306060791e-01</right_val></_></_>
        <_>
          <!-- tree 2 -->
          <_>
            <!-- root node -->
            <feature>
              <rects>
                <_>
                  0 6 10 6 -1.</_>
                <_>
                  0 8 10 2 3.</_></rects>
              <tilted>0</tilted></feature>
            <threshold>-2.2742809727787971e-02</threshold>
            <left_val>-7.9539912939071655e-01</left_val>
            <right_node>1</right_node></_>
          <_>
            <!-- node 1 -->
            <feature>
              <rects>
                <_>
                  7 13 12 2 -1.</_>
                <_>
                  11 13 4 2 3.</_></rects>
              <tilted>0</tilted></feature>
            <threshold>-1.1533929966390133e-02</threshold>
            <left_val>3.3363699913024902e-01</left_val>
            <right_val>-2.2844539582729340e-01</right_val></_></_>
        <_>
          <!-- tree 3 -->
          <_>
            <!-- root node -->
            <feature>
              <rects>
                <_>
                  8 0 10 2 -1.</_>
                <_>
                  13 0 5 2 2.</_></rects>
              <tilted>0</tilted></feature>
            <threshold>6.1406861059367657e-03</threshold>
            <left_node>1</left_node>
            <right_val>-7.0306092500686646e-01</right_val></_>
          <_>
            <!-- node 1 -->
            <feature>
              <rects>
                <_>
                  19 6 1 14 -1.</_>
                <_>
                  19 13 1 7 2.</_></rects>
              <tilted>0</tilted></feature>
            <threshold>-3.2496269792318344e-02</threshold>
            <left_val>-4.0281951427459717e-01</left_val>
            <right_val>2.3354190587997437e-01</right_val></_></_>
        <_>
          <!-- tree 4 -->
          <_>
            <!-- root node -->
            <feature>
              <rects>
                <_>
                  9 11 9 1 -1.</_>
                <_>
                  12 11 3 1 3.</_></rects>
              <tilted>0</tilted></feature>
            <threshold>4.1618000977905467e-05</threshold>
            <left_val>-4.5338240265846252e-01</left_val>
            <right_node>1</right_node></_>
          <_>
            <!-- node 1 -->
            <feature>
              <rects>
                <_>
                  14 9 6 3 -1.</_>
                <_>
                  16 9 2 3 3.</_></rects>
              <tilted>0</tilted></feature>
            <threshold>-4.5640491880476475e-03</threshold>
            <left_val>-7.0626389980316162e-01</left_val>
            <right_val>2.4175339937210083e-01</right_val></_></_>
        <_>
          <!-- tree 5 -->
          <_>
            <!-- root node -->
            <feature>
              <rects>
                <_>
                  12 18 8 2 -1.</_>
                <_>
                  12 19 8 1 2.</_></rects>
              <tilted>0</tilted></feature>
            <threshold>-7.4430732056498528e-03</threshold>
            <left_val>-8.7435740232467651e-01</left_val>
            <right_node>1</right_node></_>
          <_>
            <!-- node 1 -->
            <feature>
              <rects>
                <_>
                  4 3 13 3 -1.</_>
                <_>
                  3 4 13 1 3.</_></rects>
              <tilted>1</tilted></feature>
            <threshold>-3.6363188177347183e-02</threshold>
            <left_val>-7.9382658004760742e-01</left_val>
            <right_val>1.7191599309444427e-01</right_val></_></_>
        <_>
          <!-- tree 6 -->
          <_>
            <!-- root node -->
            <feature>
              <rects>
                <_>
                  11 2 7 4 -1.</_>
                <_>
                  11 2 7 2 2.</_></rects>
              <tilted>1</tilted></feature>
            <threshold>-9.4914272427558899e-02</threshold>
            <left_val>5.8240932226181030e-01</left_val>
            <right_node>1</right_node></_>
          <_>
            <!-- node 1 -->
            <feature>
              <rects>
                <_>
                  8 3 6 6 -1.</_>
                <_>
                  6 5 6 2 3.</_></rects>
              <tilted>1</tilted></feature>
            <threshold>-1.7733560875058174e-02</threshold>
            <left_val>2.2940009832382202e-01</left_val>
            <right_val>-3.5014259815216064e-01</right_val></_></_>
        <_>
          <!-- tree 7 -->
          <_>
            <!-- root node -->
            <feature>
              <rects>
                <_>
                  0 11 3 9 -1.</_>
                <_>
                  1 14 1 3 9.</_></rects>
              <tilted>0</tilted></feature>
            <threshold>-3.0818840023130178e-03</threshold>
            <left_val>-3.7834981083869934e-01</left_val>
            <right_node>1</right_node></_>
          <_>
            <!-- node 1 -->
            <feature>
              <rects>
                <_>
                  0 11 4 9 -1.</_>
                <_>
                  0 14 4 3 3.</_></rects>
              <tilted>0</tilted></feature>
            <threshold>1.9136130809783936e-02</threshold>
            <left_val>2.5548139214515686e-01</left_val>
            <right_val>-8.3118170499801636e-01</right_val></_></_>
        <_>
          <!-- tree 8 -->
          <_>
            <!-- root node -->
            <feature>
              <rects>
                <_>
                  8 17 4 2 -1.</_>
                <_>
                  8 17 2 1 2.</_>
                <_>
                  10 18 2 1 2.</_></rects>
              <tilted>0</tilted></feature>
            <threshold>2.8731399215757847e-03</threshold>
            <left_node>1</left_node>
            <right_val>5.1643127202987671e-01</right_val></_>
          <_>
            <!-- node 1 -->
            <feature>
              <rects>
                <_>
                  8 15 2 4 -1.</_>
                <_>
                  8 15 1 2 2.</_>
                <_>
                  9 17 1 2 2.</_></rects>
              <tilted>0</tilted></feature>
            <threshold>-4.4713271781802177e-03</threshold>
            <left_val>3.9755159616470337e-01</left_val>
            <right_val>-2.6586630940437317e-01</right_val></_></_>
        <_>
          <!-- tree 9 -->
          <_>
            <!-- root node -->
            <feature>
              <rects>
                <_>
                  3 3 16 2 -1.</_>
                <_>
                  3 4 16 1 2.</_></rects>
              <tilted>0</tilted></feature>
            <threshold>-1.0843410156667233e-02</threshold>
            <left_val>5.8586907386779785e-01</left_val>
            <right_node>1</right_node></_>
          <_>
            <!-- node 1 -->
            <feature>
              <rects>
                <_>
                  9 10 1 6 -1.</_>
                <_>
                  9 13 1 3 2.</_></rects>
              <tilted>0</tilted></feature>
            <threshold>-5.8871728833764791e-04</threshold>
            <left_val>5.6518610566854477e-02</left_val>
            <right_val>-5.1112568378448486e-01</right_val></_></_>
        <_>
          <!-- tree 10 -->
          <_>
            <!-- root node -->
            <feature>
              <rects>
                <_>
                  0 1 2 9 -1.</_>
                <_>
                  0 4 2 3 3.</_></rects>
              <tilted>0</tilted></feature>
            <threshold>-3.7390231154859066e-03</threshold>
            <left_val>-5.0315660238265991e-01</left_val>
            <right_node>1</right_node></_>
          <_>
            <!-- node 1 -->
            <feature>
              <rects>
                <_>
                  0 2 2 8 -1.</_>
                <_>
                  0 4 2 4 2.</_></rects>
              <tilted>0</tilted></feature>
            <threshold>3.6938739940524101e-03</threshold>
            <left_val>2.2696170210838318e-01</left_val>
            <right_val>-5.7020181417465210e-01</right_val></_></_>
        <_>
          <!-- tree 11 -->
          <_>
            <!-- root node -->
            <feature>
              <rects>
                <_>
                  6 5 4 4 -1.</_>
                <_>
                  8 5 2 4 2.</_></rects>
              <tilted>0</tilted></feature>
            <threshold>-8.3576207980513573e-03</threshold>
            <left_val>4.2640331387519836e-01</left_val>
            <right_node>1</right_node></_>
          <_>
            <!-- node 1 -->
            <feature>
              <rects>
                <_>
                  2 3 15 6 -1.</_>
                <_>
                  7 5 5 2 9.</_></rects>
              <tilted>0</tilted></feature>
            <threshold>8.2456447184085846e-02</threshold>
            <left_val>-3.7081369757652283e-01</left_val>
            <right_val>2.3288069665431976e-01</right_val></_></_>
        <_>
          <!-- tree 12 -->
          <_>
            <!-- root node -->
            <feature>
              <rects>
                <_>
                  5 3 3 2 -1.</_>
                <_>
                  6 4 1 2 3.</_></rects>
              <tilted>1</tilted></feature>
            <threshold>8.6598703637719154e-03</threshold>
            <left_node>1</left_node>
            <right_val>6.4084428548812866e-01</right_val></_>
          <_>
            <!-- node 1 -->
            <feature>
              <rects>
                <_>
                  13 9 7 9 -1.</_>
                <_>
                  13 12 7 3 3.</_></rects>
              <tilted>0</tilted></feature>
            <threshold>1.3399890065193176e-01</threshold>
            <left_val>-2.0342180132865906e-01</left_val>
            <right_val>6.4615452289581299e-01</right_val></_></_>
        <_>
          <!-- tree 13 -->
          <_>
            <!-- root node -->
            <feature>
              <rects>
                <_>
                  14 9 5 4 -1.</_>
                <_>
                  14 11 5 2 2.</_></rects>
              <tilted>0</tilted></feature>
            <threshold>-7.4336859397590160e-03</threshold>
            <left_val>2.9980918765068054e-01</left_val>
            <right_node>1</right_node></_>
          <_>
            <!-- node 1 -->
            <feature>
              <rects>
                <_>
                  18 10 2 3 -1.</_>
                <_>
                  17 11 2 1 3.</_></rects>
              <tilted>1</tilted></feature>
            <threshold>7.3049659840762615e-03</threshold>
            <left_val>-5.6004881858825684e-01</left_val>
            <right_val>2.1725930273532867e-01</right_val></_></_>
        <_>
          <!-- tree 14 -->
          <_>
            <!-- root node -->
            <feature>
              <rects>
                <_>
                  2 0 7 14 -1.</_>
                <_>
                  2 7 7 7 2.</_></rects>
              <tilted>0</tilted></feature>
