<?xml version="1.0"?>
<opencv_storage>
<!-- Automatically converted from /Users/kyle/openCV_Utilities/haarcascade_TF_3, window size = 20x20 -->
<haarcascade_TF_3_2 type_id="opencv-haar-classifier">
  <size>
    20 20</size>
  <stages>
    <_>
      <!-- stage 0 -->
      <trees>
        <_>
          <!-- tree 0 -->
          <_>
            <!-- root node -->
            <feature>
              <rects>
                <_>
                  0 17 30 9 -1.</_>
                <_>
                  15 17 15 9 2.</_></rects>
              <tilted>0</tilted></feature>
            <threshold>7.6286986470222473e-02</threshold>
            <left_val>-9.8654729127883911e-01</left_val>
            <right_node>1</right_node></_>
          <_>
            <!-- node 1 -->
            <feature>
              <rects>
                <_>
                  2 0 18 4 -1.</_>
                <_>
                  8 0 6 4 3.</_></rects>
              <tilted>0</tilted></feature>
            <threshold>-7.6372409239411354e-03</threshold>
            <left_val>-1.</left_val>
            <right_val>1.</right_val></_></_>
        <_>
          <!-- tree 1 -->
          <_>
            <!-- root node -->
            <feature>
              <rects>
                <_>
                  0 17 32 10 -1.</_>
                <_>
                  16 17 16 10 2.</_></rects>
              <tilted>0</tilted></feature>
            <threshold>7.9473361372947693e-02</threshold>
            <left_node>1</left_node>
            <right_val>9.6936112642288208e-01</right_val></_>
          <_>
            <!-- node 1 -->
            <feature>
              <rects>
                <_>
                  2 2 15 29 -1.</_>
                <_>
                  7 2 5 29 3.</_></rects>
              <tilted>0</tilted></feature>
            <threshold>-1.5110610425472260e-01</threshold>
            <left_val>1.</left_val>
            <right_val>-9.9732750654220581e-01</right_val></_></_></trees>
      <stage_threshold>-1.7186220735311508e-02</stage_threshold>
      <parent>-1</parent>
      <next>-1</next></_>
    <_>
      <!-- stage 1 -->
      <trees>
        <_>
          <!-- tree 0 -->
          <_>
            <!-- root node -->
            <feature>
              <rects>
                <_>
                  16 4 21 36 -1.</_>
                <_>
                  16 13 21 18 2.</_></rects>
              <tilted>0</tilted></feature>
            <threshold>2.2169770300388336e-01</threshold>
            <left_val>-9.8078912496566772e-01</left_val>
            <right_node>1</right_node></_>
          <_>
            <!-- node 1 -->
            <feature>
              <rects>
                <_>
                  7 5 15 15 -1.</_>
                <_>
                  7 10 15 5 3.</_></rects>
              <tilted>0</tilted></feature>
            <threshold>-1.1648979969322681e-02</threshold>
            <left_val>-4.9530848860740662e-01</left_val>
            <right_val>9.7456377744674683e-01</right_val></_></_>
        <_>
          <!-- tree 1 -->
          <_>
            <!-- root node -->
            <feature>
              <rects>
                <_>
                  20 0 20 40 -1.</_>
                <_>
                  20 10 20 20 2.</_></rects>
              <tilted>0</tilted></feature>
            <threshold>1.8902760744094849e-01</threshold>
            <left_val>-1.</left_val>
            <right_node>1</right_node></_>
          <_>
            <!-- node 1 -->
            <feature>
              <rects>
                <_>
                  10 19 24 6 -1.</_>
                <_>
                  18 21 8 2 9.</_></rects>
              <tilted>0</tilted></feature>
            <threshold>3.6651380360126495e-02</threshold>
            <left_val>-2.7261400222778320e-01</left_val>
            <right_val>9.6675819158554077e-01</right_val></_></_></trees>
      <stage_threshold>-1.2534029483795166e+00</stage_threshold>
      <parent>0</parent>
      <next>-1</next></_>
    <_>
      <!-- stage 2 -->
      <trees>
        <_>
          <!-- tree 0 -->
          <_>
            <!-- root node -->
            <feature>
              <rects>
                <_>
                  16 10 16 7 -1.</_>
                <_>
                  24 10 8 7 2.</_></rects>
              <tilted>0</tilted></feature>
            <threshold>-2.8204280883073807e-02</threshold>
            <left_node>1</left_node>
            <right_val>-7.9195481538772583e-01</right_val></_>
          <_>
            <!-- node 1 -->
            <feature>
              <rects>
                <_>
                  4 16 26 24 -1.</_>
                <_>
                  4 16 13 12 2.</_>
                <_>
                  17 28 13 12 2.</_></rects>
              <tilted>0</tilted></feature>
            <threshold>-1.0659240186214447e-01</threshold>
            <left_val>9.6847468614578247e-01</left_val>
            <right_val>-9.3939018249511719e-01</right_val></_></_>
        <_>
          <!-- tree 1 -->
          <_>
            <!-- root node -->
            <feature>
              <rects>
                <_>
                  0 0 11 40 -1.</_>
                <_>
                  0 20 11 20 2.</_></rects>
              <tilted>0</tilted></feature>
            <threshold>-1.5556099824607372e-02</threshold>
            <left_val>-9.3666011095046997e-01</left_val>
            <right_node>1</right_node></_>
          <_>
            <!-- node 1 -->
            <feature>
              <rects>
                <_>
                  10 0 26 4 -1.</_>
                <_>
                  23 0 13 4 2.</_></rects>
              <tilted>0</tilted></feature>
            <threshold>-5.7286680676043034e-03</threshold>
            <left_val>-9.4153338670730591e-01</left_val>
            <right_val>7.7259767055511475e-01</right_val></_></_></trees>
      <stage_threshold>-1.6679249703884125e-01</stage_threshold>
      <parent>1</parent>
      <next>-1</next></_>
    <_>
      <!-- stage 3 -->
      <trees>
        <_>
          <!-- tree 0 -->
          <_>
            <!-- root node -->
            <feature>
              <rects>
                <_>
                  31 18 9 6 -1.</_>
                <_>
                  31 18 9 3 2.</_></rects>
              <tilted>1</tilted></feature>
            <threshold>2.5972239673137665e-02</threshold>
            <left_val>-8.0591768026351929e-01</left_val>
            <right_node>1</right_node></_>
          <_>
            <!-- node 1 -->
            <feature>
              <rects>
                <_>
                  8 11 5 18 -1.</_>
                <_>
                  8 17 5 6 3.</_></rects>
              <tilted>0</tilted></feature>
            <threshold>1.3243540190160275e-02</threshold>
            <left_val>9.4860547780990601e-01</left_val>
            <right_val>-9.5419651269912720e-01</right_val></_></_>
        <_>
          <!-- tree 1 -->
          <_>
            <!-- root node -->
            <feature>
              <rects>
                <_>
                  8 20 24 11 -1.</_>
                <_>
                  14 20 12 11 2.</_></rects>
              <tilted>0</tilted></feature>
            <threshold>4.2114838957786560e-02</threshold>
            <left_val>-8.0332732200622559e-01</left_val>
            <right_node>1</right_node></_>
          <_>
            <!-- node 1 -->
            <feature>
              <rects>
                <_>
                  23 29 17 10 -1.</_>
                <_>
                  23 34 17 5 2.</_></rects>
              <tilted>0</tilted></feature>
            <threshold>-5.5474718101322651e-03</threshold>
            <left_val>-2.9652258753776550e-01</left_val>
            <right_val>9.0898597240447998e-01</right_val></_></_>
        <_>
          <!-- tree 2 -->
          <_>
            <!-- root node -->
            <feature>
              <rects>
                <_>
                  26 20 10 14 -1.</_>
                <_>
                  31 20 5 14 2.</_></rects>
              <tilted>0</tilted></feature>
            <threshold>-1.7793009756132960e-03</threshold>
            <left_val>-6.0865491628646851e-01</left_val>
            <right_node>1</right_node></_>
          <_>
            <!-- node 1 -->
            <feature>
              <rects>
                <_>
                  0 2 7 32 -1.</_>
                <_>
                  0 18 7 16 2.</_></rects>
              <tilted>0</tilted></feature>
            <threshold>1.2316050007939339e-02</threshold>
            <left_val>7.7357637882232666e-01</left_val>
            <right_val>-9.9053657054901123e-01</right_val></_></_>
        <_>
          <!-- tree 3 -->
          <_>
            <!-- root node -->
            <feature>
              <rects>
                <_>
                  32 15 6 12 -1.</_>
                <_>
                  32 19 6 4 3.</_></rects>
              <tilted>0</tilted></feature>
            <threshold>4.5561529695987701e-02</threshold>
            <left_node>1</left_node>
            <right_val>9.6706330776214600e-01</right_val></_>
          <_>
            <!-- node 1 -->
            <feature>
              <rects>
                <_>
                  14 17 18 15 -1.</_>
                <_>
                  20 22 6 5 9.</_></rects>
              <tilted>0</tilted></feature>
            <threshold>2.0512899756431580e-01</threshold>
            <left_val>-6.6890782117843628e-01</left_val>
            <right_val>8.0342042446136475e-01</right_val></_></_></trees>
      <stage_threshold>-1.5045759677886963e+00</stage_threshold>
      <parent>2</parent>
      <next>-1</next></_>
    <_>
      <!-- stage 4 -->
      <trees>
        <_>
          <!-- tree 0 -->
          <_>
            <!-- root node -->
            <feature>
              <rects>
                <_>
                  19 0 1 40 -1.</_>
                <_>
                  19 10 1 20 2.</_></rects>
              <tilted>0</tilted></feature>
            <threshold>2.0247159525752068e-02</threshold>
            <left_val>-7.3688268661499023e-01</left_val>
            <right_node>1</right_node></_>
          <_>
            <!-- node 1 -->
            <feature>
              <rects>
                <_>
                  23 4 11 36 -1.</_>
                <_>
                  23 13 11 18 2.</_></rects>
              <tilted>0</tilted></feature>
            <threshold>1.5919069945812225e-01</threshold>
            <left_val>9.5920032262802124e-01</left_val>
            <right_val>-5.3464221954345703e-01</right_val></_></_>
        <_>
          <!-- tree 1 -->
          <_>
            <!-- root node -->
            <feature>
              <rects>
                <_>
                  20 21 14 1 -1.</_>
                <_>
                  27 21 7 1 2.</_></rects>
              <tilted>0</tilted></feature>
            <threshold>-3.5136628866894171e-05</threshold>
            <left_val>-7.4062061309814453e-01</left_val>
            <right_node>1</right_node></_>
          <_>
            <!-- node 1 -->
            <feature>
              <rects>
                <_>
                  37 17 3 9 -1.</_>
                <_>
                  37 20 3 3 3.</_></rects>
              <tilted>0</tilted></feature>
            <threshold>6.4425570890307426e-03</threshold>
            <left_val>-5.2197229862213135e-01</left_val>
            <right_val>8.6381149291992188e-01</right_val></_></_>
        <_>
          <!-- tree 2 -->
          <_>
            <!-- root node -->
            <feature>
              <rects>
                <_>
                  27 29 11 8 -1.</_>
                <_>
                  27 33 11 4 2.</_></rects>
              <tilted>0</tilted></feature>
            <threshold>-2.6128280442208052e-03</threshold>
            <left_val>-6.4134681224822998e-01</left_val>
            <right_node>1</right_node></_>
          <_>
            <!-- node 1 -->
            <feature>
              <rects>
                <_>
                  0 18 30 20 -1.</_>
                <_>
                  0 18 15 10 2.</_>
                <_>
                  15 28 15 10 2.</_></rects>
              <tilted>0</tilted></feature>
            <threshold>-6.6755563020706177e-02</threshold>
            <left_val>7.9304862022399902e-01</left_val>
            <right_val>-1.0000569820404053e+00</right_val></_></_>
        <_>
          <!-- tree 3 -->
          <_>
            <!-- root node -->
            <feature>
              <rects>
                <_>
                  26 21 14 13 -1.</_>
                <_>
                  33 21 7 13 2.</_></rects>
              <tilted>0</tilted></feature>
            <threshold>-1.0329890064895153e-03</threshold>
            <left_val>-4.9320968985557556e-01</left_val>
            <right_node>1</right_node></_>
          <_>
            <!-- node 1 -->
            <feature>
              <rects>
                <_>
                  32 30 6 10 -1.</_>
                <_>
                  32 35 6 5 2.</_></rects>
              <tilted>0</tilted></feature>
            <threshold>-3.9393221959471703e-03</threshold>
            <left_val>-9.3479138612747192e-01</left_val>
            <right_val>8.5192281007766724e-01</right_val></_></_></trees>
      <stage_threshold>-1.2669270038604736e+00</stage_threshold>
      <parent>3</parent>
      <next>-1</next></_>
    <_>
      <!-- stage 5 -->
      <trees>
        <_>
          <!-- tree 0 -->
          <_>
            <!-- root node -->
            <feature>
              <rects>
                <_>
                  15 2 18 14 -1.</_>
                <_>
                  15 2 9 7 2.</_>
                <_>
                  24 9 9 7 2.</_></rects>
              <tilted>0</tilted></feature>
            <threshold>-3.2908830791711807e-02</threshold>
            <left_val>8.2922047376632690e-01</left_val>
            <right_node>1</right_node></_>
          <_>
            <!-- node 1 -->
            <feature>
              <rects>
                <_>
                  11 2 28 18 -1.</_>
                <_>
                  11 2 14 9 2.</_>
                <_>
                  25 11 14 9 2.</_></rects>
              <tilted>0</tilted></feature>
            <threshold>-4.4500079005956650e-02</threshold>
            <left_val>8.8632851839065552e-01</left_val>
            <right_val>-8.1995791196823120e-01</right_val></_></_>
        <_>
          <!-- tree 1 -->
          <_>
            <!-- root node -->
            <feature>
              <rects>
                <_>
                  16 1 7 16 -1.</_>
                <_>
                  16 9 7 8 2.</_></rects>
              <tilted>0</tilted></feature>
            <threshold>4.5147348195314407e-02</threshold>
            <left_node>1</left_node>
            <right_val>8.3501791954040527e-01</right_val></_>
          <_>
            <!-- node 1 -->
            <feature>
              <rects>
                <_>
                  0 36 40 3 -1.</_>
                <_>
                  20 36 20 3 2.</_></rects>
              <tilted>0</tilted></feature>
            <threshold>-2.1112249232828617e-03</threshold>
            <left_val>-8.5252618789672852e-01</left_val>
            <right_val>2.8328970074653625e-01</right_val></_></_>
        <_>
          <!-- tree 2 -->
          <_>
            <!-- root node -->
            <feature>
              <rects>
                <_>
                  20 20 10 2 -1.</_>
                <_>
                  25 20 5 2 2.</_></rects>
              <tilted>0</tilted></feature>
            <threshold>7.3794202762655914e-05</threshold>
            <left_node>1</left_node>
            <right_val>6.3198679685592651e-01</right_val></_>
          <_>
            <!-- node 1 -->
            <feature>
              <rects>
                <_>
                  0 14 14 26 -1.</_>
                <_>
                  0 27 14 13 2.</_></rects>
              <tilted>0</tilted></feature>
            <threshold>1.0631169425323606e-03</threshold>
            <left_val>-8.7729179859161377e-01</left_val>
            <right_val>5.2636677026748657e-01</right_val></_></_>
        <_>
          <!-- tree 3 -->
          <_>
            <!-- root node -->
            <feature>
              <rects>
                <_>
                  18 11 16 16 -1.</_>
                <_>
                  22 11 8 16 2.</_></rects>
              <tilted>0</tilted></feature>
            <threshold>-3.6805760115385056e-02</threshold>
            <left_val>8.9408957958221436e-01</left_val>
            <right_node>1</right_node></_>
          <_>
            <!-- node 1 -->
            <feature>
              <rects>
                <_>
                  35 21 5 12 -1.</_>
                <_>
                  32 24 5 6 2.</_></rects>
              <tilted>1</tilted></feature>
            <threshold>-2.7035489678382874e-02</threshold>
            <left_val>8.2509309053421021e-01</left_val>
            <right_val>-6.7988801002502441e-01</right_val></_></_>
        <_>
          <!-- tree 4 -->
          <_>
            <!-- root node -->
            <feature>
              <rects>
                <_>
                  26 20 14 13 -1.</_>
                <_>
                  33 20 7 13 2.</_></rects>
              <tilted>0</tilted></feature>
            <threshold>-1.8914469983428717e-03</threshold>
            <left_val>-5.6686711311340332e-01</left_val>
            <right_node>1</right_node></_>
          <_>
            <!-- node 1 -->
            <feature>
              <rects>
                <_>
                  28 29 11 6 -1.</_>
                <_>
                  28 32 11 3 2.</_></rects>
              <tilted>0</tilted></feature>
            <threshold>-1.6487139509990811e-03</threshold>
            <left_val>-4.4638919830322266e-01</left_val>
            <right_val>8.5008811950683594e-01</right_val></_></_></trees>
      <stage_threshold>-1.1514359712600708e+00</stage_threshold>
      <parent>4</parent>
      <next>-1</next></_>
    <_>
      <!-- stage 6 -->
      <trees>
        <_>
          <!-- tree 0 -->
          <_>
            <!-- root node -->
            <feature>
              <rects>
                <_>
                  22 15 18 12 -1.</_>
                <_>
                  22 19 18 4 3.</_></rects>
              <tilted>0</tilted></feature>
            <threshold>1.2730750441551208e-01</threshold>
            <left_node>1</left_node>
            <right_val>8.7525987625122070e-01</right_val></_>
          <_>
            <!-- node 1 -->
            <feature>
              <rects>
                <_>
                  32 24 8 16 -1.</_>
                <_>
                  32 28 8 8 2.</_></rects>
              <tilted>0</tilted></feature>
            <threshold>-5.0383221358060837e-02</threshold>
            <left_val>8.7959158420562744e-01</left_val>
            <right_val>-7.8034681081771851e-01</right_val></_></_>
        <_>
          <!-- tree 1 -->
          <_>
            <!-- root node -->
            <feature>
              <rects>
                <_>
                  17 0 21 32 -1.</_>
                <_>
                  24 0 7 32 3.</_></rects>
              <tilted>0</tilted></feature>
            <threshold>-8.4518782794475555e-02</threshold>
            <left_val>8.4357237815856934e-01</left_val>
            <right_node>1</right_node></_>
          <_>
            <!-- node 1 -->
            <feature>
              <rects>
                <_>
                  28 12 10 4 -1.</_>
                <_>
                  28 12 5 4 2.</_></rects>
              <tilted>1</tilted></feature>
            <threshold>-5.6884579360485077e-02</threshold>
            <left_val>1.</left_val>
            <right_val>-6.5202677249908447e-01</right_val></_></_>
        <_>
          <!-- tree 2 -->
          <_>
            <!-- root node -->
            <feature>
              <rects>
                <_>
                  0 0 10 40 -1.</_>
                <_>
                  0 20 10 20 2.</_></rects>
              <tilted>0</tilted></feature>
            <threshold>-9.2277750372886658e-03</threshold>
            <left_val>-8.0335867404937744e-01</left_val>
            <right_node>1</right_node></_>
          <_>
            <!-- node 1 -->
            <feature>
              <rects>
                <_>
                  0 19 16 20 -1.</_>
                <_>
                  0 24 16 10 2.</_></rects>
              <tilted>0</tilted></feature>
            <threshold>-1.1410569772124290e-02</threshold>
            <left_val>-1.</left_val>
            <right_val>8.0499678850173950e-01</right_val></_></_></trees>
      <stage_threshold>-6.2737679481506348e-01</stage_threshold>
      <parent>5</parent>
      <next>-1</next></_>
    <_>
      <!-- stage 7 -->
      <trees>
        <_>
          <!-- tree 0 -->
          <_>
            <!-- root node -->
            <feature>
              <rects>
                <_>
                  31 19 6 12 -1.</_>
                <_>
                  28 22 6 6 2.</_></rects>
              <tilted>1</tilted></feature>
            <threshold>-2.5665210559964180e-02</threshold>
            <left_val>9.2910921573638916e-01</left_val>
            <right_node>1</right_node></_>
          <_>
            <!-- node 1 -->
            <feature>
              <rects>
                <_>
                  35 5 5 18 -1.</_>
                <_>
                  29 11 5 6 3.</_></rects>
              <tilted>1</tilted></feature>
            <threshold>-7.8210957348346710e-02</threshold>
            <left_val>9.5369249582290649e-01</left_val>
            <right_val>-8.6120331287384033e-01</right_val></_></_>
        <_>
          <!-- tree 1 -->
          <_>
            <!-- root node -->
            <feature>
              <rects>
                <_>
                  8 1 27 36 -1.</_>
                <_>
                  17 13 9 12 9.</_></rects>
              <tilted>0</tilted></feature>
            <threshold>7.2536158561706543e-01</threshold>
            <left_node>1</left_node>
            <right_val>8.4271132946014404e-01</right_val></_>
          <_>
            <!-- node 1 -->
            <feature>
              <rects>
                <_>
                  22 4 14 27 -1.</_>
                <_>
                  29 4 7 27 2.</_></rects>
              <tilted>0</tilted></feature>
            <threshold>-8.0120399594306946e-02</threshold>
            <left_val>8.6987119913101196e-01</left_val>
            <right_val>-8.6140072345733643e-01</right_val></_></_>
        <_>
          <!-- tree 2 -->
          <_>
            <!-- root node -->
            <feature>
              <rects>
                <_>
                  23 21 12 14 -1.</_>
                <_>
                  29 21 6 14 2.</_></rects>
              <tilted>0</tilted></feature>
            <threshold>-1.1722589842975140e-03</threshold>
            <left_node>1</left_node>
            <right_val>6.9608300924301147e-01</right_val></_>
          <_>
            <!-- node 1 -->
            <feature>
              <rects>
                <_>
                  18 28 22 12 -1.</_>
                <_>
                  18 28 11 6 2.</_>
                <_>
                  29 34 11 6 2.</_></rects>
              <tilted>0</tilted></feature>
            <threshold>2.0981030538678169e-02</threshold>
            <left_val>-8.5590779781341553e-01</left_val>
            <right_val>4.2860001325607300e-01</right_val></_></_>
        <_>
          <!-- tree 3 -->
          <_>
            <!-- root node -->
            <feature>
              <rects>
                <_>
                  30 9 8 23 -1.</_>
                <_>
                  32 11 4 23 2.</_></rects>
              <tilted>1</tilted></feature>
            <threshold>3.3112660050392151e-02</threshold>
            <left_node>1</left_node>
            <right_val>6.6966861486434937e-01</right_val></_>
          <_>
            <!-- node 1 -->
            <feature>
              <rects>
                <_>
                  32 15 2 15 -1.</_>
                <_>
                  32 20 2 5 3.</_></rects>
              <tilted>0</tilted></feature>
            <threshold>2.2232199087738991e-02</threshold>
            <left_val>-7.3333740234375000e-01</left_val>
            <right_val>6.8655478954315186e-01</right_val></_></_>
        <_>
          <!-- tree 4 -->
          <_>
            <!-- root node -->
            <feature>
              <rects>
                <_>
                  6 6 28 28 -1.</_>
                <_>
                  13 6 14 28 2.</_></rects>
              <tilted>0</tilted></feature>
            <threshold>1.0745660215616226e-01</threshold>
            <left_val>-6.3807260990142822e-01</left_val>
            <right_node>1</right_node></_>
          <_>
            <!-- node 1 -->
            <feature>
              <rects>
                <_>
                  15 32 4 4 -1.</_>
                <_>
                  15 32 2 4 2.</_></rects>
              <tilted>1</tilted></feature>
            <threshold>-5.1557999104261398e-03</threshold>
            <left_val>-8.3810091018676758e-01</left_val>
            <right_val>8.0583161115646362e-01</right_val></_></_></trees>
      <stage_threshold>-1.2455220222473145e+00</stage_threshold>
      <parent>6</parent>
      <next>-1</next></_>
    <_>
      <!-- stage 8 -->
      <trees>
        <_>
          <!-- tree 0 -->
          <_>
            <!-- root node -->
            <feature>
              <rects>
                <_>
                  15 25 20 7 -1.</_>
                <_>
                  25 25 10 7 2.</_></rects>
              <tilted>0</tilted></feature>
            <threshold>-3.2424461096525192e-02</threshold>
            <left_val>9.1227287054061890e-01</left_val>
            <right_node>1</right_node></_>
          <_>
            <!-- node 1 -->
            <feature>
              <rects>
                <_>
                  39 17 1 15 -1.</_>
                <_>
                  39 22 1 5 3.</_></rects>
              <tilted>0</tilted></feature>
            <threshold>1.2289729900658131e-02</threshold>
            <left_val>-8.5009407997131348e-01</left_val>
            <right_val>8.7483072280883789e-01</right_val></_></_>
        <_>
          <!-- tree 1 -->
          <_>
            <!-- root node -->
            <feature>
              <rects>
                <_>
                  25 11 1 6 -1.</_>
                <_>
                  25 11 1 3 2.</_></rects>
              <tilted>1</tilted></feature>
            <threshold>-5.9357839636504650e-03</threshold>
            <left_val>8.5640668869018555e-01</left_val>
            <right_node>1</right_node></_>
          <_>
            <!-- node 1 -->
            <feature>
              <rects>
                <_>
                  23 4 16 5 -1.</_>
                <_>
                  27 8 8 5 2.</_></rects>
              <tilted>1</tilted></feature>
            <threshold>-5.0276938825845718e-02</threshold>
            <left_val>9.3671351671218872e-01</left_val>
            <right_val>-6.9113868474960327e-01</right_val></_></_>
        <_>
          <!-- tree 2 -->
          <_>
            <!-- root node -->
            <feature>
              <rects>
                <_>
                  29 25 11 12 -1.</_>
                <_>
                  29 31 11 6 2.</_></rects>
              <tilted>0</tilted></feature>
            <threshold>-2.7449559420347214e-03</threshold>
            <left_node>1</left_node>
            <right_val>8.6642032861709595e-01</right_val></_>
          <_>
            <!-- node 1 -->
            <feature>
              <rects>
                <_>
                  33 14 7 4 -1.</_>
                <_>
                  33 14 7 2 2.</_></rects>
              <tilted>1</tilted></feature>
            <threshold>-1.3179649598896503e-02</threshold>
            <left_val>5.2121889591217041e-01</left_val>
            <right_val>-8.7187802791595459e-01</right_val></_></_>
        <_>
          <!-- tree 3 -->
          <_>
            <!-- root node -->
            <feature>
              <rects>
                <_>
                  39 20 1 4 -1.</_>
                <_>
                  39 21 1 2 2.</_></rects>
              <tilted>0</tilted></feature>
            <threshold>-1.3604159903479740e-05</threshold>
            <left_val>-8.4746509790420532e-01</left_val>
            <right_node>1</right_node></_>
          <_>
            <!-- node 1 -->
            <feature>
              <rects>
                <_>
                  20 2 3 12 -1.</_>
                <_>
                  21 3 1 12 3.</_></rects>
              <tilted>1</tilted></feature>
            <threshold>2.0327901002019644e-03</threshold>
            <left_val>7.1921747922897339e-01</left_val>
            <right_val>-7.5225067138671875e-01</right_val></_></_>
        <_>
          <!-- tree 4 -->
          <_>
            <!-- root node -->
            <feature>
              <rects>
                <_>
                  11 1 28 4 -1.</_>
                <_>
                  18 8 14 4 2.</_></rects>
              <tilted>1</tilted></feature>
            <threshold>1.0904479771852493e-01</threshold>
            <left_node>1</left_node>
            <right_val>7.8548657894134521e-01</right_val></_>
          <_>
            <!-- node 1 -->
            <feature>
              <rects>
                <_>
                  13 8 20 10 -1.</_>
                <_>
                  13 8 10 5 2.</_>
                <_>
                  23 13 10 5 2.</_></rects>
              <tilted>0</tilted></feature>
            <threshold>-1.6410280019044876e-02</threshold>
            <left_val>7.6973479986190796e-01</left_val>
            <right_val>-7.2151571512222290e-01</right_val></_></_></trees>
      <stage_threshold>-1.0223120450973511e+00</stage_threshold>
      <parent>7</parent>
      <next>-1</next></_>
    <_>
      <!-- stage 9 -->
      <trees>
        <_>
          <!-- tree 0 -->
          <_>
            <!-- root node -->
            <feature>
              <rects>
                <_>
                  24 21 15 1 -1.</_>
                <_>
                  29 21 5 1 3.</_></rects>
              <tilted>0</tilted></feature>
            <threshold>-3.9582799217896536e-05</threshold>
            <left_val>-9.1480922698974609e-01</left_val>
            <right_node>1</right_node></_>
          <_>
            <!-- node 1 -->
            <feature>
              <rects>
                <_>
                  13 18 7 6 -1.</_>
                <_>
                  11 20 7 2 3.</_></rects>
              <tilted>1</tilted></feature>
            <threshold>1.0835640132427216e-02</threshold>
            <left_val>1.</left_val>
            <right_val>-9.9996370077133179e-01</right_val></_></_>
        <_>
          <!-- tree 1 -->
          <_>
            <!-- root node -->
            <feature>
              <rects>
                <_>
                  13 13 8 8 -1.</_>
                <_>
                  13 13 4 4 2.</_>
                <_>
                  17 17 4 4 2.</_></rects>
              <tilted>0</tilted></feature>
            <threshold>6.3717029988765717e-03</threshold>
            <left_node>1</left_node>
            <right_val>-8.0572378635406494e-01</right_val></_>
          <_>
            <!-- node 1 -->
            <feature>
              <rects>
                <_>
                  0 4 2 3 -1.</_>
                <_>
                  1 4 1 3 2.</_></rects>
              <tilted>0</tilted></feature>
            <threshold>-5.4299237672239542e-04</threshold>
            <left_val>-1.</left_val>
            <right_val>1.0000009536743164e+00</right_val></_></_>
        <_>
          <!-- tree 2 -->
          <_>
            <!-- root node -->
            <feature>
              <rects>
                <_>
                  19 20 3 3 -1.</_>
                <_>
                  19 21 3 1 3.</_></rects>
              <tilted>0</tilted></feature>
            <threshold>-1.7020400264300406e-04</threshold>
            <left_val>-8.7898957729339600e-01</left_val>
            <right_node>1</right_node></_>
          <_>
            <!-- node 1 -->
            <feature>
              <rects>
                <_>
                  3 1 3 3 -1.</_>
                <_>
                  4 2 1 1 9.</_></rects>
              <tilted>0</tilted></feature>
            <threshold>1.3230890035629272e-03</threshold>
            <left_val>1.</left_val>
            <right_val>-6.7896682024002075e-01</right_val></_></_></trees>
      <stage_threshold>-7.9379737377166748e-01</stage_threshold>
      <parent>8</parent>
      <next>-1</next></_></stages></haarcascade_TF_3_2>
</opencv_storage>
