<?xml version="1.0"?>
<opencv_storage>
<!-- Automatically converted from /Users/kyle/openCV_Utilities/haarcascade_TF, window size = 20x20 -->
<haarcascade_TF_2 type_id="opencv-haar-classifier">
  <size>
    20 20</size>
  <stages>
    <_>
      <!-- stage 0 -->
      <trees>
        <_>
          <!-- tree 0 -->
          <_>
            <!-- root node -->
            <feature>
              <rects>
                <_>
                  0 6 14 9 -1.</_>
                <_>
                  7 6 7 9 2.</_></rects>
              <tilted>0</tilted></feature>
            <threshold>1.4853079617023468e-01</threshold>
            <left_val>-9.6266537904739380e-01</left_val>
            <right_node>1</right_node></_>
          <_>
            <!-- node 1 -->
            <feature>
              <rects>
                <_>
                  12 0 8 20 -1.</_>
                <_>
                  12 5 8 10 2.</_></rects>
              <tilted>0</tilted></feature>
            <threshold>1.5488959848880768e-01</threshold>
            <left_val>-1.</left_val>
            <right_val>1.</right_val></_></_>
        <_>
          <!-- tree 1 -->
          <_>
            <!-- root node -->
            <feature>
              <rects>
                <_>
                  11 3 9 16 -1.</_>
                <_>
                  11 7 9 8 2.</_></rects>
              <tilted>0</tilted></feature>
            <threshold>1.9840349256992340e-01</threshold>
            <left_val>-9.7389322519302368e-01</left_val>
            <right_node>1</right_node></_>
          <_>
            <!-- node 1 -->
            <feature>
              <rects>
                <_>
                  0 8 1 12 -1.</_>
                <_>
                  0 14 1 6 2.</_></rects>
              <tilted>0</tilted></feature>
            <threshold>-7.8818807378411293e-03</threshold>
            <left_val>-1.</left_val>
            <right_val>1.</right_val></_></_></trees>
      <stage_threshold>2.6107249781489372e-02</stage_threshold>
      <parent>-1</parent>
      <next>-1</next></_>
    <_>
      <!-- stage 1 -->
      <trees>
        <_>
          <!-- tree 0 -->
          <_>
            <!-- root node -->
            <feature>
              <rects>
                <_>
                  9 2 11 18 -1.</_>
                <_>
                  9 8 11 6 3.</_></rects>
              <tilted>0</tilted></feature>
            <threshold>5.3601282835006714e-01</threshold>
            <left_node>1</left_node>
            <right_val>9.5679867267608643e-01</right_val></_>
          <_>
            <!-- node 1 -->
            <feature>
              <rects>
                <_>
                  11 7 6 1 -1.</_>
                <_>
                  11 7 3 1 2.</_></rects>
              <tilted>1</tilted></feature>
            <threshold>3.5124618560075760e-02</threshold>
            <left_val>-9.5992511510848999e-01</left_val>
            <right_val>1.0000009536743164e+00</right_val></_></_>
        <_>
          <!-- tree 1 -->
          <_>
            <!-- root node -->
            <feature>
              <rects>
                <_>
                  6 4 12 3 -1.</_>
                <_>
                  10 8 4 3 3.</_></rects>
              <tilted>1</tilted></feature>
            <threshold>1.8913979828357697e-01</threshold>
            <left_node>1</left_node>
            <right_val>9.0304982662200928e-01</right_val></_>
          <_>
            <!-- node 1 -->
            <feature>
              <rects>
                <_>
                  9 7 6 12 -1.</_>
                <_>
                  11 11 2 4 9.</_></rects>
              <tilted>0</tilted></feature>
            <threshold>2.7859160304069519e-01</threshold>
            <left_val>-9.2689269781112671e-01</left_val>
            <right_val>6.2076550722122192e-01</right_val></_></_>
        <_>
          <!-- tree 2 -->
          <_>
            <!-- root node -->
            <feature>
              <rects>
                <_>
                  5 1 15 2 -1.</_>
                <_>
                  10 6 5 2 3.</_></rects>
              <tilted>1</tilted></feature>
            <threshold>1.4051499962806702e-01</threshold>
            <left_node>1</left_node>
            <right_val>8.1565022468566895e-01</right_val></_>
          <_>
            <!-- node 1 -->
            <feature>
              <rects>
                <_>
                  14 7 6 6 -1.</_>
                <_>
                  14 10 6 3 2.</_></rects>
              <tilted>0</tilted></feature>
            <threshold>8.8124662637710571e-02</threshold>
            <left_val>-9.4309377670288086e-01</left_val>
            <right_val>7.6641327142715454e-01</right_val></_></_></trees>
      <stage_threshold>-1.2822530269622803e+00</stage_threshold>
      <parent>0</parent>
      <next>-1</next></_>
    <_>
      <!-- stage 2 -->
      <trees>
        <_>
          <!-- tree 0 -->
          <_>
            <!-- root node -->
            <feature>
              <rects>
                <_>
                  5 5 9 11 -1.</_>
                <_>
                  8 5 3 11 3.</_></rects>
              <tilted>0</tilted></feature>
            <threshold>1.7114299535751343e-01</threshold>
            <left_node>1</left_node>
            <right_val>9.4577461481094360e-01</right_val></_>
          <_>
            <!-- node 1 -->
            <feature>
              <rects>
                <_>
                  8 8 4 9 -1.</_>
                <_>
                  10 8 2 9 2.</_></rects>
              <tilted>0</tilted></feature>
            <threshold>7.3577269911766052e-02</threshold>
            <left_val>-8.7362718582153320e-01</left_val>
            <right_val>8.5795128345489502e-01</right_val></_></_>
        <_>
          <!-- tree 1 -->
          <_>
            <!-- root node -->
            <feature>
              <rects>
                <_>
                  11 5 9 12 -1.</_>
                <_>
                  11 8 9 6 2.</_></rects>
              <tilted>0</tilted></feature>
            <threshold>2.1409440040588379e-01</threshold>
            <left_node>1</left_node>
            <right_val>8.2942807674407959e-01</right_val></_>
          <_>
            <!-- node 1 -->
            <feature>
              <rects>
                <_>
                  13 7 6 12 -1.</_>
                <_>
                  13 10 6 6 2.</_></rects>
              <tilted>0</tilted></feature>
            <threshold>-7.3315367102622986e-02</threshold>
            <left_val>7.1458071470260620e-01</left_val>
            <right_val>-8.8798141479492188e-01</right_val></_></_>
        <_>
          <!-- tree 2 -->
          <_>
            <!-- root node -->
            <feature>
              <rects>
                <_>
                  2 0 10 17 -1.</_>
                <_>
                  7 0 5 17 2.</_></rects>
              <tilted>0</tilted></feature>
            <threshold>1.7545519769191742e-01</threshold>
            <left_val>-6.3705152273178101e-01</left_val>
            <right_node>1</right_node></_>
          <_>
            <!-- node 1 -->
            <feature>
              <rects>
                <_>
                  8 3 12 16 -1.</_>
                <_>
                  8 7 12 8 2.</_></rects>
              <tilted>0</tilted></feature>
            <threshold>2.7919858694076538e-01</threshold>
            <left_val>-8.9843022823333740e-01</left_val>
            <right_val>9.1955268383026123e-01</right_val></_></_>
        <_>
          <!-- tree 3 -->
          <_>
            <!-- root node -->
            <feature>
              <rects>
                <_>
                  0 1 3 18 -1.</_>
                <_>
                  1 7 1 6 9.</_></rects>
              <tilted>0</tilted></feature>
            <threshold>-1.4288079924881458e-02</threshold>
            <left_val>-9.6449661254882812e-01</left_val>
            <right_node>1</right_node></_>
          <_>
            <!-- node 1 -->
            <feature>
              <rects>
                <_>
                  1 3 1 12 -1.</_>
                <_>
                  1 6 1 6 2.</_></rects>
              <tilted>0</tilted></feature>
            <threshold>3.2173099461942911e-03</threshold>
            <left_val>7.1858167648315430e-01</left_val>
            <right_val>-9.5822560787200928e-01</right_val></_></_>
        <_>
          <!-- tree 4 -->
          <_>
            <!-- root node -->
            <feature>
              <rects>
                <_>
                  17 8 3 6 -1.</_>
                <_>
                  17 10 3 2 3.</_></rects>
              <tilted>0</tilted></feature>
            <threshold>3.9339199662208557e-02</threshold>
            <left_node>1</left_node>
            <right_val>7.1270841360092163e-01</right_val></_>
          <_>
            <!-- node 1 -->
            <feature>
              <rects>
                <_>
                  6 5 6 8 -1.</_>
                <_>
                  9 5 3 8 2.</_></rects>
              <tilted>0</tilted></feature>
            <threshold>-4.8457011580467224e-02</threshold>
            <left_val>9.2925918102264404e-01</left_val>
            <right_val>-7.1290922164916992e-01</right_val></_></_></trees>
      <stage_threshold>-9.6737021207809448e-01</stage_threshold>
      <parent>1</parent>
      <next>-1</next></_>
    <_>
      <!-- stage 3 -->
      <trees>
        <_>
          <!-- tree 0 -->
          <_>
            <!-- root node -->
            <feature>
              <rects>
                <_>
                  16 4 2 12 -1.</_>
                <_>
                  12 8 2 4 3.</_></rects>
              <tilted>1</tilted></feature>
            <threshold>1.6355420649051666e-01</threshold>
            <left_val>-7.3281031847000122e-01</left_val>
            <right_node>1</right_node></_>
          <_>
            <!-- node 1 -->
            <feature>
              <rects>
                <_>
                  2 12 15 6 -1.</_>
                <_>
                  7 14 5 2 9.</_></rects>
              <tilted>0</tilted></feature>
            <threshold>7.8737460076808929e-02</threshold>
            <left_val>-9.4345277547836304e-01</left_val>
            <right_val>9.5652598142623901e-01</right_val></_></_>
        <_>
          <!-- tree 1 -->
          <_>
            <!-- root node -->
            <feature>
              <rects>
                <_>
                  0 0 14 17 -1.</_>
                <_>
                  7 0 7 17 2.</_></rects>
              <tilted>0</tilted></feature>
            <threshold>2.0557489991188049e-01</threshold>
            <left_val>-6.9108498096466064e-01</left_val>
            <right_node>1</right_node></_>
          <_>
            <!-- node 1 -->
            <feature>
              <rects>
                <_>
                  2 19 16 1 -1.</_>
                <_>
                  6 19 8 1 2.</_></rects>
              <tilted>0</tilted></feature>
            <threshold>5.8181439526379108e-03</threshold>
            <left_val>7.5014752149581909e-01</left_val>
            <right_val>-9.9999552965164185e-01</right_val></_></_>
        <_>
          <!-- tree 2 -->
          <_>
            <!-- root node -->
            <feature>
              <rects>
                <_>
                  2 2 11 6 -1.</_>
                <_>
                  2 5 11 3 2.</_></rects>
              <tilted>0</tilted></feature>
            <threshold>1.5294180251657963e-02</threshold>
            <left_val>-7.9403698444366455e-01</left_val>
            <right_node>1</right_node></_>
          <_>
            <!-- node 1 -->
            <feature>
              <rects>
                <_>
                  0 0 5 20 -1.</_>
                <_>
                  0 10 5 10 2.</_></rects>
              <tilted>0</tilted></feature>
            <threshold>-1.7842629924416542e-02</threshold>
            <left_val>-8.6051589250564575e-01</left_val>
            <right_val>6.2366718053817749e-01</right_val></_></_>
        <_>
          <!-- tree 3 -->
          <_>
            <!-- root node -->
            <feature>
              <rects>
                <_>
                  0 0 3 18 -1.</_>
                <_>
                  0 9 3 9 2.</_></rects>
              <tilted>0</tilted></feature>
            <threshold>1.1056479997932911e-02</threshold>
            <left_node>1</left_node>
            <right_val>-9.7489959001541138e-01</right_val></_>
          <_>
            <!-- node 1 -->
            <feature>
              <rects>
                <_>
                  0 0 3 18 -1.</_>
                <_>
                  0 9 3 9 2.</_></rects>
              <tilted>0</tilted></feature>
            <threshold>-6.4136250875890255e-03</threshold>
            <left_val>-4.6615639328956604e-01</left_val>
            <right_val>7.2584748268127441e-01</right_val></_></_>
        <_>
          <!-- tree 4 -->
          <_>
            <!-- root node -->
            <feature>
              <rects>
                <_>
                  11 9 9 1 -1.</_>
                <_>
                  14 9 3 1 3.</_></rects>
              <tilted>0</tilted></feature>
            <threshold>-7.7653283369727433e-05</threshold>
            <left_val>-7.3726582527160645e-01</left_val>
            <right_node>1</right_node></_>
          <_>
            <!-- node 1 -->
            <feature>
              <rects>
                <_>
                  12 9 3 2 -1.</_>
                <_>
                  13 9 1 2 3.</_></rects>
              <tilted>0</tilted></feature>
            <threshold>-1.4610060316044837e-04</threshold>
            <left_val>-8.2220011949539185e-01</left_val>
            <right_val>6.2431842088699341e-01</right_val></_></_></trees>
      <stage_threshold>-2.0036499500274658e+00</stage_threshold>
      <parent>2</parent>
      <next>-1</next></_>
    <_>
      <!-- stage 4 -->
      <trees>
        <_>
          <!-- tree 0 -->
          <_>
            <!-- root node -->
            <feature>
              <rects>
                <_>
                  9 4 4 6 -1.</_>
                <_>
                  11 4 2 6 2.</_></rects>
              <tilted>0</tilted></feature>
            <threshold>-2.6754250749945641e-02</threshold>
            <left_val>8.1101930141448975e-01</left_val>
            <right_node>1</right_node></_>
          <_>
            <!-- node 1 -->
            <feature>
              <rects>
                <_>
                  16 6 1 6 -1.</_>
                <_>
                  16 6 1 3 2.</_></rects>
              <tilted>1</tilted></feature>
            <threshold>-3.9829738438129425e-02</threshold>
            <left_val>8.7200587987899780e-01</left_val>
            <right_val>-8.3515429496765137e-01</right_val></_></_>
        <_>
          <!-- tree 1 -->
          <_>
            <!-- root node -->
            <feature>
              <rects>
                <_>
                  13 13 7 6 -1.</_>
                <_>
                  13 16 7 3 2.</_></rects>
              <tilted>0</tilted></feature>
            <threshold>-6.1468468047678471e-03</threshold>
            <left_node>1</left_node>
            <right_val>6.7181658744812012e-01</right_val></_>
          <_>
            <!-- node 1 -->
            <feature>
              <rects>
                <_>
                  11 8 6 8 -1.</_>
                <_>
                  11 10 6 4 2.</_></rects>
              <tilted>0</tilted></feature>
            <threshold>1.1645899713039398e-01</threshold>
            <left_val>-8.7924021482467651e-01</left_val>
            <right_val>6.2407410144805908e-01</right_val></_></_>
        <_>
          <!-- tree 2 -->
          <_>
            <!-- root node -->
            <feature>
              <rects>
                <_>
                  4 6 15 9 -1.</_>
                <_>
                  9 9 5 3 9.</_></rects>
              <tilted>0</tilted></feature>
            <threshold>5.1604878902435303e-01</threshold>
            <left_val>-5.2377897500991821e-01</left_val>
            <right_node>1</right_node></_>
          <_>
            <!-- node 1 -->
            <feature>
              <rects>
                <_>
                  13 9 6 3 -1.</_>
                <_>
                  15 10 2 1 9.</_></rects>
              <tilted>0</tilted></feature>
            <threshold>8.5329089779406786e-04</threshold>
            <left_val>-9.3715018033981323e-01</left_val>
            <right_val>9.3424731492996216e-01</right_val></_></_>
        <_>
          <!-- tree 3 -->
          <_>
            <!-- root node -->
            <feature>
              <rects>
                <_>
                  8 0 12 3 -1.</_>
                <_>
                  14 0 6 3 2.</_></rects>
              <tilted>0</tilted></feature>
            <threshold>-8.5381111130118370e-03</threshold>
            <left_val>-8.7644350528717041e-01</left_val>
            <right_node>1</right_node></_>
          <_>
            <!-- node 1 -->
            <feature>
              <rects>
                <_>
                  2 2 3 6 -1.</_>
                <_>
                  2 5 3 3 2.</_></rects>
              <tilted>0</tilted></feature>
            <threshold>4.6419198624789715e-03</threshold>
            <left_val>6.3584989309310913e-01</left_val>
            <right_val>-8.9667278528213501e-01</right_val></_></_>
        <_>
          <!-- tree 4 -->
          <_>
            <!-- root node -->
            <feature>
              <rects>
                <_>
                  4 19 16 1 -1.</_>
                <_>
                  12 19 8 1 2.</_></rects>
              <tilted>0</tilted></feature>
            <threshold>-4.1040848009288311e-03</threshold>
            <left_val>-8.7951970100402832e-01</left_val>
            <right_node>1</right_node></_>
          <_>
            <!-- node 1 -->
            <feature>
              <rects>
                <_>
                  16 10 4 6 -1.</_>
                <_>
                  17 10 2 6 2.</_></rects>
              <tilted>0</tilted></feature>
            <threshold>2.1693070884793997e-03</threshold>
            <left_val>5.6063878536224365e-01</left_val>
            <right_val>-8.8751947879791260e-01</right_val></_></_></trees>
      <stage_threshold>-1.0416849851608276e+00</stage_threshold>
      <parent>3</parent>
      <next>-1</next></_>
    <_>
      <!-- stage 5 -->
      <trees>
        <_>
          <!-- tree 0 -->
          <_>
            <!-- root node -->
            <feature>
              <rects>
                <_>
                  9 0 1 20 -1.</_>
                <_>
                  9 5 1 10 2.</_></rects>
              <tilted>0</tilted></feature>
            <threshold>5.0275810062885284e-02</threshold>
            <left_val>-6.4698058366775513e-01</left_val>
            <right_node>1</right_node></_>
          <_>
            <!-- node 1 -->
            <feature>
              <rects>
                <_>
                  0 0 6 20 -1.</_>
                <_>
                  0 10 6 10 2.</_></rects>
              <tilted>0</tilted></feature>
            <threshold>-1.7379170283675194e-02</threshold>
            <left_val>-6.1149519681930542e-01</left_val>
            <right_val>9.3407231569290161e-01</right_val></_></_>
        <_>
          <!-- tree 1 -->
          <_>
            <!-- root node -->
            <feature>
              <rects>
                <_>
                  6 2 12 6 -1.</_>
                <_>
                  6 2 6 3 2.</_>
                <_>
                  12 5 6 3 2.</_></rects>
              <tilted>0</tilted></feature>
            <threshold>-2.6875659823417664e-02</threshold>
            <left_node>1</left_node>
            <right_val>-4.3294700980186462e-01</right_val></_>
          <_>
            <!-- node 1 -->
            <feature>
              <rects>
                <_>
                  9 9 6 4 -1.</_>
                <_>
                  9 10 6 2 2.</_></rects>
              <tilted>0</tilted></feature>
            <threshold>5.8257030323147774e-03</threshold>
            <left_val>-1.</left_val>
            <right_val>8.2730048894882202e-01</right_val></_></_>
        <_>
          <!-- tree 2 -->
          <_>
            <!-- root node -->
            <feature>
              <rects>
                <_>
                  0 0 4 20 -1.</_>
                <_>
                  0 10 4 10 2.</_></rects>
              <tilted>0</tilted></feature>
            <threshold>-8.8889729231595993e-03</threshold>
            <left_val>-5.8994507789611816e-01</left_val>
            <right_node>1</right_node></_>
          <_>
            <!-- node 1 -->
            <feature>
              <rects>
                <_>
                  0 2 4 18 -1.</_>
                <_>
                  0 11 4 9 2.</_></rects>
              <tilted>0</tilted></feature>
            <threshold>2.3129820823669434e-02</threshold>
            <left_val>6.0515892505645752e-01</left_val>
            <right_val>-9.5682537555694580e-01</right_val></_></_>
        <_>
          <!-- tree 3 -->
          <_>
            <!-- root node -->
            <feature>
              <rects>
                <_>
                  12 10 4 1 -1.</_>
                <_>
                  14 10 2 1 2.</_></rects>
              <tilted>0</tilted></feature>
            <threshold>-4.9192949518328533e-05</threshold>
            <left_val>-5.8875930309295654e-01</left_val>
            <right_node>1</right_node></_>
          <_>
            <!-- node 1 -->
            <feature>
              <rects>
                <_>
                  9 10 9 1 -1.</_>
                <_>
                  12 10 3 1 3.</_></rects>
              <tilted>0</tilted></feature>
            <threshold>-8.9839319116435945e-05</threshold>
            <left_val>-4.4661560654640198e-01</left_val>
            <right_val>7.6016861200332642e-01</right_val></_></_>
        <_>
          <!-- tree 4 -->
          <_>
            <!-- root node -->
            <feature>
              <rects>
                <_>
                  0 0 5 6 -1.</_>
                <_>
                  0 3 5 3 2.</_></rects>
              <tilted>0</tilted></feature>
            <threshold>-2.5839800946414471e-03</threshold>
            <left_val>-7.6125001907348633e-01</left_val>
            <right_node>1</right_node></_>
          <_>
            <!-- node 1 -->
            <feature>
              <rects>
                <_>
                  2 1 3 2 -1.</_>
                <_>
                  2 1 3 1 2.</_></rects>
              <tilted>1</tilted></feature>
            <threshold>-2.8520389460027218e-03</threshold>
            <left_val>-9.6740442514419556e-01</left_val>
            <right_val>5.4993307590484619e-01</right_val></_></_>
        <_>
          <!-- tree 5 -->
          <_>
            <!-- root node -->
            <feature>
              <rects>
                <_>
                  13 10 6 7 -1.</_>
                <_>
                  16 10 3 7 2.</_></rects>
              <tilted>0</tilted></feature>
            <threshold>-2.1179260220378637e-03</threshold>
            <left_val>-5.4365539550781250e-01</left_val>
            <right_node>1</right_node></_>
          <_>
            <!-- node 1 -->
            <feature>
              <rects>
                <_>
                  1 5 10 2 -1.</_>
                <_>
                  1 6 10 1 2.</_></rects>
              <tilted>0</tilted></feature>
            <threshold>-1.1066610459238291e-03</threshold>
            <left_val>-9.2592567205429077e-01</left_val>
            <right_val>5.9661859273910522e-01</right_val></_></_>
        <_>
          <!-- tree 6 -->
          <_>
            <!-- root node -->
            <feature>
              <rects>
                <_>
                  4 0 14 2 -1.</_>
                <_>
                  11 0 7 2 2.</_></rects>
              <tilted>0</tilted></feature>
            <threshold>-3.0461959540843964e-03</threshold>
            <left_val>-9.0222090482711792e-01</left_val>
            <right_node>1</right_node></_>
          <_>
            <!-- node 1 -->
            <feature>
              <rects>
                <_>
                  14 1 2 4 -1.</_>
                <_>
                  14 2 2 2 2.</_></rects>
              <tilted>0</tilted></feature>
            <threshold>-1.6905829543247819e-03</threshold>
            <left_val>-7.3014348745346069e-01</left_val>
            <right_val>4.8693719506263733e-01</right_val></_></_></trees>
      <stage_threshold>-1.7873940467834473e+00</stage_threshold>
      <parent>4</parent>
      <next>-1</next></_>
    <_>
      <!-- stage 6 -->
      <trees>
        <_>
          <!-- tree 0 -->
          <_>
            <!-- root node -->
            <feature>
              <rects>
                <_>
                  15 2 4 8 -1.</_>
                <_>
                  15 2 4 4 2.</_></rects>
              <tilted>1</tilted></feature>
            <threshold>-1.5752689540386200e-01</threshold>
            <left_val>9.0716952085494995e-01</left_val>
            <right_node>1</right_node></_>
          <_>
            <!-- node 1 -->
            <feature>
              <rects>
                <_>
                  19 8 1 6 -1.</_>
                <_>
                  19 8 1 3 2.</_></rects>
              <tilted>1</tilted></feature>
            <threshold>3.8120258599519730e-02</threshold>
            <left_val>-7.2971892356872559e-01</left_val>
            <right_val>6.3263291120529175e-01</right_val></_></_>
        <_>
          <!-- tree 1 -->
          <_>
            <!-- root node -->
            <feature>
              <rects>
                <_>
                  11 11 4 1 -1.</_>
                <_>
                  13 11 2 1 2.</_></rects>
              <tilted>0</tilted></feature>
            <threshold>-4.8612728278385475e-05</threshold>
            <left_node>1</left_node>
            <right_val>5.5853068828582764e-01</right_val></_>
          <_>
            <!-- node 1 -->
            <feature>
              <rects>
                <_>
                  16 12 3 6 -1.</_>
                <_>
                  16 15 3 3 2.</_></rects>
              <tilted>0</tilted></feature>
            <threshold>-5.4767529945820570e-04</threshold>
            <left_val>-8.7102401256561279e-01</left_val>
            <right_val>6.6440248489379883e-01</right_val></_></_>
        <_>
          <!-- tree 2 -->
          <_>
            <!-- root node -->
            <feature>
              <rects>
                <_>
                  14 11 4 4 -1.</_>
                <_>
                  13 12 4 2 2.</_></rects>
              <tilted>1</tilted></feature>
            <threshold>-1.2045940384268761e-02</threshold>
            <left_node>1</left_node>
            <right_val>-5.5941611528396606e-01</right_val></_>
          <_>
            <!-- node 1 -->
            <feature>
              <rects>
                <_>
                  13 10 6 5 -1.</_>
                <_>
                  16 10 3 5 2.</_></rects>
              <tilted>0</tilted></feature>
            <threshold>-3.5193960648030043e-03</threshold>
            <left_val>-6.4707487821578979e-01</left_val>
            <right_val>8.0359697341918945e-01</right_val></_></_>
        <_>
          <!-- tree 3 -->
          <_>
            <!-- root node -->
            <feature>
              <rects>
                <_>
                  0 0 5 20 -1.</_>
                <_>
                  0 10 5 10 2.</_></rects>
              <tilted>0</tilted></feature>
            <threshold>-1.0529750026762486e-02</threshold>
            <left_val>-7.5536692142486572e-01</left_val>
            <right_node>1</right_node></_>
          <_>
            <!-- node 1 -->
            <feature>
              <rects>
                <_>
                  1 2 3 18 -1.</_>
                <_>
                  1 8 3 6 3.</_></rects>
              <tilted>0</tilted></feature>
            <threshold>1.1787489987909794e-02</threshold>
            <left_val>5.8488577604293823e-01</left_val>
            <right_val>-9.1089177131652832e-01</right_val></_></_>
        <_>
          <!-- tree 4 -->
          <_>
            <!-- root node -->
            <feature>
              <rects>
                <_>
                  11 9 8 1 -1.</_>
                <_>
                  13 9 4 1 2.</_></rects>
              <tilted>0</tilted></feature>
            <threshold>1.2377259554341435e-04</threshold>
            <left_node>1</left_node>
            <right_val>5.5371367931365967e-01</right_val></_>
          <_>
            <!-- node 1 -->
            <feature>
              <rects>
                <_>
                  14 9 6 6 -1.</_>
                <_>
                  16 11 2 2 9.</_></rects>
              <tilted>0</tilted></feature>
            <threshold>8.2047477364540100e-02</threshold>
            <left_val>-8.8408970832824707e-01</left_val>
            <right_val>5.4304748773574829e-01</right_val></_></_></trees>
      <stage_threshold>-1.0215590000152588e+00</stage_threshold>
      <parent>5</parent>
      <next>-1</next></_>
    <_>
      <!-- stage 7 -->
      <trees>
        <_>
          <!-- tree 0 -->
          <_>
            <!-- root node -->
            <feature>
              <rects>
                <_>
                  9 0 1 20 -1.</_>
                <_>
                  9 5 1 10 2.</_></rects>
              <tilted>0</tilted></feature>
            <threshold>4.3667539954185486e-02</threshold>
            <left_val>-7.1215677261352539e-01</left_val>
            <right_node>1</right_node></_>
          <_>
            <!-- node 1 -->
            <feature>
              <rects>
                <_>
                  9 10 10 1 -1.</_>
                <_>
                  14 10 5 1 2.</_></rects>
              <tilted>0</tilted></feature>
            <threshold>-8.4850442362949252e-04</threshold>
            <left_val>-4.6273928880691528e-01</left_val>
            <right_val>9.2484372854232788e-01</right_val></_></_>
        <_>
          <!-- tree 1 -->
          <_>
            <!-- root node -->
            <feature>
              <rects>
                <_>
                  14 6 6 10 -1.</_>
                <_>
                  17 6 3 10 2.</_></rects>
              <tilted>0</tilted></feature>
            <threshold>-5.8593209832906723e-03</threshold>
            <left_val>-8.1353139877319336e-01</left_val>
            <right_node>1</right_node></_>
          <_>
            <!-- node 1 -->
            <feature>
              <rects>
                <_>
                  16 9 1 3 -1.</_>
                <_>
                  15 10 1 1 3.</_></rects>
              <tilted>1</tilted></feature>
            <threshold>1.9511879654601216e-03</threshold>
            <left_val>-3.8969239592552185e-01</left_val>
            <right_val>7.5086128711700439e-01</right_val></_></_>
        <_>
          <!-- tree 2 -->
          <_>
            <!-- root node -->
            <feature>
              <rects>
                <_>
                  7 1 7 6 -1.</_>
                <_>
                  7 4 7 3 2.</_></rects>
              <tilted>0</tilted></feature>
            <threshold>2.0401319488883018e-02</threshold>
            <left_node>1</left_node>
            <right_val>5.1051527261734009e-01</right_val></_>
          <_>
            <!-- node 1 -->
            <feature>
              <rects>
                <_>
                  14 9 6 6 -1.</_>
                <_>
                  14 11 6 2 3.</_></rects>
              <tilted>0</tilted></feature>
            <threshold>1.0357250273227692e-01</threshold>
            <left_val>-8.5664582252502441e-01</left_val>
            <right_val>6.0814887285232544e-01</right_val></_></_>
        <_>
          <!-- tree 3 -->
          <_>
            <!-- root node -->
            <feature>
              <rects>
                <_>
                  0 18 20 2 -1.</_>
                <_>
                  10 18 10 2 2.</_></rects>
              <tilted>0</tilted></feature>
            <threshold>-2.7340881060808897e-03</threshold>
            <left_val>-4.9441289901733398e-01</left_val>
            <right_node>1</right_node></_>
          <_>
            <!-- node 1 -->
            <feature>
              <rects>
                <_>
                  10 18 10 2 -1.</_>
                <_>
                  15 18 5 2 2.</_></rects>
              <tilted>0</tilted></feature>
            <threshold>-1.3201390393078327e-02</threshold>
            <left_val>-9.6794712543487549e-01</left_val>
            <right_val>7.2299832105636597e-01</right_val></_></_>
        <_>
          <!-- tree 4 -->
          <_>
            <!-- root node -->
            <feature>
              <rects>
                <_>
                  1 15 6 4 -1.</_>
                <_>
                  4 15 3 4 2.</_></rects>
              <tilted>0</tilted></feature>
            <threshold>-3.0504690948873758e-03</threshold>
            <left_val>-8.2956892251968384e-01</left_val>
            <right_node>1</right_node></_>
          <_>
            <!-- node 1 -->
            <feature>
              <rects>
                <_>
                  0 2 7 18 -1.</_>
                <_>
                  0 11 7 9 2.</_></rects>
              <tilted>0</tilted></feature>
            <threshold>-1.7691100016236305e-02</threshold>
            <left_val>-9.0463089942932129e-01</left_val>
            <right_val>5.4603409767150879e-01</right_val></_></_>
        <_>
          <!-- tree 5 -->
          <_>
            <!-- root node -->
            <feature>
              <rects>
                <_>
                  17 6 3 9 -1.</_>
                <_>
                  17 9 3 3 3.</_></rects>
              <tilted>0</tilted></feature>
            <threshold>1.0696910321712494e-01</threshold>
            <left_node>1</left_node>
            <right_val>8.0274498462677002e-01</right_val></_>
          <_>
            <!-- node 1 -->
            <feature>
              <rects>
                <_>
                  14 8 2 9 -1.</_>
                <_>
                  14 11 2 3 3.</_></rects>
              <tilted>0</tilted></feature>
            <threshold>7.5901776552200317e-02</threshold>
            <left_val>-5.6286960840225220e-01</left_val>
            <right_val>7.7104991674423218e-01</right_val></_></_></trees>
      <stage_threshold>-1.5264209508895874e+00</stage_threshold>
      <parent>6</parent>
      <next>-1</next></_>
    <_>
      <!-- stage 8 -->
      <trees>
        <_>
          <!-- tree 0 -->
          <_>
            <!-- root node -->
            <feature>
              <rects>
                <_>
                  13 2 5 9 -1.</_>
                <_>
                  10 5 5 3 3.</_></rects>
              <tilted>1</tilted></feature>
            <threshold>2.1874469518661499e-01</threshold>
            <left_val>-6.8539607524871826e-01</left_val>
            <right_node>1</right_node></_>
          <_>
            <!-- node 1 -->
            <feature>
              <rects>
                <_>
                  10 10 6 1 -1.</_>
                <_>
                  13 10 3 1 2.</_></rects>
              <tilted>0</tilted></feature>
            <threshold>-3.5434850724413991e-04</threshold>
            <left_val>-3.8172560930252075e-01</left_val>
            <right_val>9.6068739891052246e-01</right_val></_></_>
        <_>
          <!-- tree 1 -->
          <_>
            <!-- root node -->
            <feature>
              <rects>
                <_>
                  4 5 15 12 -1.</_>
                <_>
                  9 9 5 4 9.</_></rects>
              <tilted>0</tilted></feature>
            <threshold>5.5197972059249878e-01</threshold>
            <left_val>-5.0862568616867065e-01</left_val>
            <right_node>1</right_node></_>
          <_>
            <!-- node 1 -->
            <feature>
              <rects>
                <_>
                  13 11 4 1 -1.</_>
                <_>
                  14 11 2 1 2.</_></rects>
              <tilted>0</tilted></feature>
            <threshold>-5.7405810366617516e-05</threshold>
            <left_val>-7.4104547500610352e-01</left_val>
            <right_val>7.2609722614288330e-01</right_val></_></_>
        <_>
          <!-- tree 2 -->
          <_>
            <!-- root node -->
            <feature>
              <rects>
                <_>
                  1 0 4 16 -1.</_>
                <_>
                  1 8 4 8 2.</_></rects>
              <tilted>0</tilted></feature>
            <threshold>-8.5412757471203804e-03</threshold>
            <left_val>-7.7932608127593994e-01</left_val>
            <right_node>1</right_node></_>
          <_>
            <!-- node 1 -->
            <feature>
              <rects>
                <_>
                  2 1 3 14 -1.</_>
                <_>
                  2 8 3 7 2.</_></rects>
              <tilted>0</tilted></feature>
            <threshold>8.5247121751308441e-03</threshold>
            <left_val>5.1058459281921387e-01</left_val>
            <right_val>-7.6838201284408569e-01</right_val></_></_>
        <_>
          <!-- tree 3 -->
          <_>
            <!-- root node -->
            <feature>
              <rects>
                <_>
                  0 18 20 2 -1.</_>
                <_>
                  10 18 10 2 2.</_></rects>
              <tilted>0</tilted></feature>
            <threshold>-1.5514550032094121e-03</threshold>
            <left_node>1</left_node>
            <right_val>5.4880201816558838e-01</right_val></_>
          <_>
            <!-- node 1 -->
            <feature>
              <rects>
                <_>
                  9 11 6 1 -1.</_>
                <_>
                  12 11 3 1 2.</_></rects>
              <tilted>0</tilted></feature>
            <threshold>2.9209279455244541e-04</threshold>
            <left_val>-7.9712319374084473e-01</left_val>
            <right_val>3.2445639371871948e-01</right_val></_></_>
        <_>
          <!-- tree 4 -->
          <_>
            <!-- root node -->
            <feature>
              <rects>
                <_>
                  12 9 2 6 -1.</_>
                <_>
                  12 9 1 3 2.</_>
                <_>
                  13 12 1 3 2.</_></rects>
              <tilted>0</tilted></feature>
            <threshold>-9.5905968919396400e-04</threshold>
            <left_val>-6.4330977201461792e-01</left_val>
            <right_node>1</right_node></_>
          <_>
            <!-- node 1 -->
            <feature>
              <rects>
                <_>
                  16 15 4 1 -1.</_>
                <_>
                  16 15 2 1 2.</_></rects>
              <tilted>1</tilted></feature>
            <threshold>2.2718729451298714e-03</threshold>
            <left_val>5.5776941776275635e-01</left_val>
            <right_val>-7.0294338464736938e-01</right_val></_></_>
        <_>
          <!-- tree 5 -->
          <_>
            <!-- root node -->
            <feature>
              <rects>
                <_>
                  14 3 1 3 -1.</_>
                <_>
                  14 4 1 1 3.</_></rects>
              <tilted>0</tilted></feature>
            <threshold>-1.0868429671972990e-03</threshold>
            <left_val>-7.2485411167144775e-01</left_val>
            <right_node>1</right_node></_>
          <_>
            <!-- node 1 -->
            <feature>
              <rects>
                <_>
                  1 13 5 4 -1.</_>
                <_>
                  1 15 5 2 2.</_></rects>
              <tilted>0</tilted></feature>
            <threshold>-4.5033320784568787e-03</threshold>
            <left_val>-9.2247730493545532e-01</left_val>
            <right_val>4.5907959342002869e-01</right_val></_></_></trees>
      <stage_threshold>-1.5624330043792725e+00</stage_threshold>
      <parent>7</parent>
      <next>-1</next></_>
    <_>
      <!-- stage 9 -->
      <trees>
        <_>
          <!-- tree 0 -->
          <_>
            <!-- root node -->
            <feature>
              <rects>
                <_>
                  12 6 8 9 -1.</_>
                <_>
                  12 9 8 3 3.</_></rects>
              <tilted>0</tilted></feature>
            <threshold>2.3940880596637726e-01</threshold>
            <left_node>1</left_node>
            <right_val>7.7168780565261841e-01</right_val></_>
          <_>
            <!-- node 1 -->
            <feature>
              <rects>
                <_>
                  16 8 2 9 -1.</_>
                <_>
                  16 11 2 3 3.</_></rects>
              <tilted>0</tilted></feature>
            <threshold>5.9889860451221466e-02</threshold>
            <left_val>-8.5354727506637573e-01</left_val>
            <right_val>1.0000129938125610e+00</right_val></_></_>
        <_>
          <!-- tree 1 -->
          <_>
            <!-- root node -->
            <feature>
              <rects>
                <_>
                  14 9 2 5 -1.</_>
                <_>
                  14 9 1 5 2.</_></rects>
              <tilted>1</tilted></feature>
            <threshold>2.6927869766950607e-02</threshold>
            <left_node>1</left_node>
            <right_val>8.0047899484634399e-01</right_val></_>
          <_>
            <!-- node 1 -->
            <feature>
              <rects>
                <_>
                  11 5 9 8 -1.</_>
                <_>
                  11 9 9 4 2.</_></rects>
              <tilted>0</tilted></feature>
            <threshold>2.5328728556632996e-01</threshold>
            <left_val>-7.5660318136215210e-01</left_val>
            <right_val>9.9997431039810181e-01</right_val></_></_>
        <_>
          <!-- tree 2 -->
          <_>
            <!-- root node -->
            <feature>
              <rects>
                <_>
                  4 6 3 2 -1.</_>
                <_>
                  5 7 1 2 3.</_></rects>
              <tilted>1</tilted></feature>
            <threshold>-2.1343911066651344e-03</threshold>
            <left_val>-6.2758618593215942e-01</left_val>
            <right_node>1</right_node></_>
          <_>
            <!-- node 1 -->
            <feature>
              <rects>
                <_>
                  18 1 2 1 -1.</_>
                <_>
                  18 1 1 1 2.</_></rects>
              <tilted>1</tilted></feature>
            <threshold>-1.9742920994758606e-03</threshold>
            <left_val>-9.7858542203903198e-01</left_val>
            <right_val>7.6692509651184082e-01</right_val></_></_>
        <_>
          <!-- tree 3 -->
          <_>
            <!-- root node -->
            <feature>
              <rects>
                <_>
                  10 10 6 1 -1.</_>
                <_>
                  13 10 3 1 2.</_></rects>
              <tilted>0</tilted></feature>
            <threshold>2.2203259868547320e-04</threshold>
            <left_node>1</left_node>
            <right_val>8.7510341405868530e-01</right_val></_>
          <_>
            <!-- node 1 -->
            <feature>
              <rects>
                <_>
                  9 10 8 4 -1.</_>
                <_>
                  9 10 4 2 2.</_>
                <_>
                  13 12 4 2 2.</_></rects>
              <tilted>0</tilted></feature>
            <threshold>3.6243461072444916e-03</threshold>
            <left_val>-7.6835262775421143e-01</left_val>
            <right_val>1.0000250339508057e+00</right_val></_></_></trees>
      <stage_threshold>-1.3626329898834229e+00</stage_threshold>
      <parent>8</parent>
      <next>-1</next></_>
    <_>
      <!-- stage 10 -->
      <trees>
        <_>
          <!-- tree 0 -->
          <_>
            <!-- root node -->
            <feature>
              <rects>
                <_>
                  7 0 8 2 -1.</_>
                <_>
                  9 2 4 2 2.</_></rects>
              <tilted>1</tilted></feature>
            <threshold>-4.3822820298373699e-03</threshold>
            <left_node>1</left_node>
            <right_val>9.9998992681503296e-01</right_val></_>
          <_>
            <!-- node 1 -->
            <feature>
              <rects>
                <_>
                  2 11 3 1 -1.</_>
                <_>
                  3 12 1 1 3.</_></rects>
              <tilted>1</tilted></feature>
            <threshold>1.4998799888417125e-03</threshold>
            <left_val>1.</left_val>
            <right_val>-9.9467521905899048e-01</right_val></_></_>
        <_>
          <!-- tree 1 -->
          <_>
            <!-- root node -->
            <feature>
              <rects>
                <_>
                  7 0 8 2 -1.</_>
                <_>
                  9 2 4 2 2.</_></rects>
              <tilted>1</tilted></feature>
            <threshold>-4.3822820298373699e-03</threshold>
            <left_node>1</left_node>
            <right_val>9.9997967481613159e-01</right_val></_>
          <_>
            <!-- node 1 -->
            <feature>
              <rects>
                <_>
                  0 0 2 20 -1.</_>
                <_>
                  0 0 1 10 2.</_>
                <_>
                  1 10 1 10 2.</_></rects>
              <tilted>0</tilted></feature>
            <threshold>-1.7989339539781213e-03</threshold>
            <left_val>1.</left_val>
            <right_val>-9.9999988079071045e-01</right_val></_></_></trees>
      <stage_threshold>5.9604641222676946e-08</stage_threshold>
      <parent>9</parent>
      <next>-1</next></_></stages></haarcascade_TF_2>
</opencv_storage>
